{"learner":{"attributes":{"scikit_learn":"{\"_estimator_type\": \"classifier\"}"},"feature_names":["Flow Pkts/s","Flow Byts/s","Pkt Size Avg","Flow IAT Mean"],"feature_types":["float","float","float","float"],"gradient_booster":{"model":{"cats":{"enc":[],"feature_segments":[],"sorted_idx":[]},"gbtree_model_param":{"num_parallel_tree":"1","num_trees":"150"},"iteration_indptr":[0,1,2,3,4,5,6,7,8,9,10,11,12,13,14,15,16,17,18,19,20,21,22,23,24,25,26,27,28,29,30,31,32,33,34,35,36,37,38,39,40,41,42,43,44,45,46,47,48,49,50,51,52,53,54,55,56,57,58,59,60,61,62,63,64,65,66,67,68,69,70,71,72,73,74,75,76,77,78,79,80,81,82,83,84,85,86,87,88,89,90,91,92,93,94,95,96,97,98,99,100,101,102,103,104,105,106,107,108,109,110,111,112,113,114,115,116,117,118,119,120,121,122,123,124,125,126,127,128,129,130,131,132,133,134,135,136,137,138,139,140,141,142,143,144,145,146,147,148,149,150],"tree_info":[0,0,0,0,0,0,0,0,0,0,0,0,0,0,0,0,0,0,0,0,0,0,0,0,0,0,0,0,0,0,0,0,0,0,0,0,0,0,0,0,0,0,0,0,0,0,0,0,0,0,0,0,0,0,0,0,0,0,0,0,0,0,0,0,0,0,0,0,0,0,0,0,0,0,0,0,0,0,0,0,0,0,0,0,0,0,0,0,0,0,0,0,0,0,0,0,0,0,0,0,0,0,0,0,0,0,0,0,0,0,0,0,0,0,0,0,0,0,0,0,0,0,0,0,0,0,0,0,0,0,0,0,0,0,0,0,0,0,0,0,0,0,0,0,0,0,0,0,0,0],"trees":[{"base_weights":[-7.593562E-8,1.6624994E0,-1.9115438E0,1.6941105E0,-1.9481146E-1,-8.679519E-1,-2.3209468E-1,1.7015926E0,-7.3641026E-3,-2.8375176E-1,-1.9645828E0,1.7105749E0,3.2089528E-2,7.130181E-1,-2.2620974E-1,-1.0902429E0,-2.0739934E0,1.7435382E-1,1.4627837E-1,1.6080238E-1,-3.0624282E-3,8.947419E-2,-1.9481146E-1,-1.6476808E-1,-2.2530964E-1],"categories":[],"categories_nodes":[],"categories_segments":[],"categories_sizes":[],"default_left":[0,0,0,0,0,0,0,0,0,0,0,0,0,0,0,0,0,0,0,0,0,0,0,0,0],"id":0,"left_children":[1,3,5,7,-1,9,-1,11,-1,13,15,17,-1,19,-1,21,23,-1,-1,-1,-1,-1,-1,-1,-1],"loss_changes":[3.8895806E3,7.8014404E1,2.4122876E2,8.715454E0,0E0,1.0323621E2,0E0,7.472168E0,0E0,2.123583E2,3.1094513E0,2.696167E0,0E0,4.7854008E1,0E0,1.5965662E1,1.2863159E-2,0E0,0E0,0E0,0E0,0E0,0E0,0E0,0E0],"parents":[2147483647,0,0,1,1,2,2,3,3,5,5,7,7,9,9,10,10,11,11,13,13,15,15,16,16],"right_children":[2,4,6,8,-1,10,-1,12,-1,14,16,18,-1,20,-1,22,24,-1,-1,-1,-1,-1,-1,-1,-1],"split_conditions":[1.01E2,1.5493089E0,1.5493089E0,1.4285714E5,-1.9481146E-1,1.18E7,-2.3209468E-1,6E1,-7.3641026E-3,9.3789923E-1,5.390613E-2,4.225352E4,3.2089528E-2,3.1345828E6,-2.2620974E-1,2.42E7,1.54E7,1.7435382E-1,1.4627837E-1,1.6080238E-1,-3.0624282E-3,8.947419E-2,-1.9481146E-1,-1.6476808E-1,-2.2530964E-1],"split_indices":[3,1,1,0,0,3,0,3,0,0,0,0,0,3,0,3,3,0,0,0,0,0,0,0,0],"split_type":[0,0,0,0,0,0,0,0,0,0,0,0,0,0,0,0,0,0,0,0,0,0,0,0,0],"sum_hessian":[1.2219312E3,6.536082E2,5.68323E2,6.484617E2,5.146521E0,1.6101259E2,4.073104E2,6.4576587E2,2.6957967E0,1.0587129E2,5.51413E1,6.4135455E2,4.411304E0,7.0825935E1,3.504536E1,7.3521733E0,4.7789127E1,5.6072577E2,8.062883E1,3.1614346E1,3.921159E1,2.205652E0,5.146521E0,1.7155071E1,3.0634054E1],"tree_param":{"num_deleted":"0","num_feature":"4","num_nodes":"25","size_leaf_vector":"1"}},{"base_weights":[1.929604E-3,1.5450422E0,-1.6935683E0,1.5752999E0,-1.7565823E-1,-7.7891934E-1,-2.0471321E-1,1.5824809E0,-6.8215923E-3,-2.5866267E-1,-1.7440485E0,1.5910761E0,2.9594172E-2,6.4413756E-1,-2.0020215E-1,-9.8512846E-1,-1.8379745E0,1.6228235E-1,1.354004E-1,1.4677286E-1,-2.621048E-3,8.4195144E-2,-1.7565823E-1,-1.458541E-1,-1.995123E-1],"categories":[],"categories_nodes":[],"categories_segments":[],"categories_sizes":[],"default_left":[0,0,0,0,0,0,0,0,0,0,0,0,0,0,0,0,0,0,0,0,0,0,0,0,0],"id":1,"left_children":[1,3,5,7,-1,9,-1,11,-1,13,15,17,-1,19,-1,21,23,-1,-1,-1,-1,-1,-1,-1,-1],"loss_changes":[3.173702E3,6.620874E1,1.8531543E2,7.5410156E0,0E0,8.126693E1,0E0,6.463867E0,0E0,1.695706E2,2.240219E0,2.489502E0,0E0,3.934631E1,0E0,1.3338208E1,3.6483765E-2,0E0,0E0,0E0,0E0,0E0,0E0,0E0,0E0],"parents":[2147483647,0,0,1,1,2,2,3,3,5,5,7,7,9,9,10,10,11,11,13,13,15,15,16,16],"right_children":[2,4,6,8,-1,10,-1,12,-1,14,16,18,-1,20,-1,22,24,-1,-1,-1,-1,-1,-1,-1,-1],"split_conditions":[1.01E2,1.5493089E0,8.555555E0,1.4285714E5,-1.7565823E-1,1.18E7,-2.0471321E-1,6E1,-6.8215923E-3,9.3789923E-1,5.390613E-2,4.225352E4,2.9594172E-2,3.1345828E6,-2.0020215E-1,2.42E7,1.54E7,1.6228235E-1,1.354004E-1,1.4677286E-1,-2.621048E-3,8.4195144E-2,-1.7565823E-1,-1.458541E-1,-1.995123E-1],"split_indices":[3,1,2,0,0,3,0,3,0,0,0,0,0,3,0,3,3,0,0,0,0,0,0,0,0],"split_type":[0,0,0,0,0,0,0,0,0,0,0,0,0,0,0,0,0,0,0,0,0,0,0,0,0],"sum_hessian":[1.211029E3,6.3405206E2,5.769769E2,6.288122E2,5.239886E0,1.6174774E2,4.1522922E2,6.2611365E2,2.6985495E0,1.0591945E2,5.582829E1,6.2172327E2,4.390369E0,7.019791E1,3.5721542E1,7.4137545E0,4.841453E1,5.431434E2,7.857992E1,3.0964882E1,3.9233025E1,2.173869E0,5.239886E0,1.7190208E1,3.1224325E1],"tree_param":{"num_deleted":"0","num_feature":"4","num_nodes":"25","size_leaf_vector":"1"}},{"base_weights":[2.9483503E-3,1.4514651E0,-1.5348635E0,1.4806501E0,-1.6088836E-1,-7.091421E-1,-1.8529859E-1,1.4876833E0,-6.319382E-3,-2.30802E-1,-1.581819E0,1.4961088E0,2.7296701E-2,6.0192657E-1,-1.815063E-1,-9.011332E-1,-1.6649041E0,1.5277065E-1,1.2627873E-1,1.4053544E-1,-2.381319E-3,7.940298E-2,-1.6088836E-1,-1.3243766E-1,-1.8092845E-1],"categories":[],"categories_nodes":[],"categories_segments":[],"categories_sizes":[],"default_left":[0,0,0,0,0,0,0,0,0,0,0,0,0,0,0,0,0,0,0,0,0,0,0,0,0],"id":2,"left_children":[1,3,5,7,-1,9,-1,11,-1,13,15,17,-1,19,-1,21,23,-1,-1,-1,-1,-1,-1,-1,-1],"loss_changes":[2.6379536E3,5.6849487E1,1.4957385E2,6.6586914E0,0E0,6.6998726E1,0E0,5.751709E0,0E0,1.4015508E2,1.7213745E0,2.47583E0,0E0,3.5146416E1,0E0,1.1327481E1,4.1885376E-2,0E0,0E0,0E0,0E0,0E0,0E0,0E0,0E0],"parents":[2147483647,0,0,1,1,2,2,3,3,5,5,7,7,9,9,10,10,11,11,13,13,15,15,16,16],"right_children":[2,4,6,8,-1,10,-1,12,-1,14,16,18,-1,20,-1,22,24,-1,-1,-1,-1,-1,-1,-1,-1],"split_conditions":[1.01E2,1.5493089E0,1.5493089E0,1.4285714E5,-1.6088836E-1,1.18E7,-1.8529859E-1,6E1,-6.319382E-3,9.3789923E-1,5.390613E-2,4.225352E4,2.7296701E-2,3.1345828E6,-1.815063E-1,2.42E7,1.54E7,1.5277065E-1,1.2627873E-1,1.4053544E-1,-2.381319E-3,7.940298E-2,-1.6088836E-1,-1.3243766E-1,-1.8092845E-1],"split_indices":[3,1,1,0,0,3,0,3,0,0,0,0,0,3,0,3,3,0,0,0,0,0,0,0,0],"split_type":[0,0,0,0,0,0,0,0,0,0,0,0,0,0,0,0,0,0,0,0,0,0,0,0,0],"sum_hessian":[1.1822418E3,6.088251E2,5.734167E2,6.0358514E2,5.239891E0,1.6037503E2,4.130417E2,6.008841E2,2.701038E0,1.04409546E2,5.596549E1,5.965149E2,4.3692036E0,6.884361E1,3.5565926E1,7.37671E0,4.858878E1,5.2048096E2,7.603397E1,2.9596651E1,3.9246964E1,2.136819E0,5.239891E0,1.7496155E1,3.1092625E1],"tree_param":{"num_deleted":"0","num_feature":"4","num_nodes":"25","size_leaf_vector":"1"}},{"base_weights":[3.4763569E-3,1.3750799E0,-1.4137717E0,1.4034055E0,-1.4913318E-1,-6.5283513E-1,-1.7082128E-1,1.4104038E0,-5.8544422E-3,-2.1193087E-1,-1.453689E0,1.418819E0,2.5179535E-2,8.957434E-1,-1.2585962E0,-8.321627E-1,-1.5291189E0,1.4510384E-1,1.1844253E-1,1.4650439E-1,3.8876303E-2,-3.973491E-2,-1.6742541E-1,7.50212E-2,-1.4913318E-1,-1.2065518E-1,-1.6690868E-1],"categories":[],"categories_nodes":[],"categories_segments":[],"categories_sizes":[],"default_left":[0,0,0,0,0,0,0,0,0,0,0,0,0,0,0,0,0,0,0,0,0,0,0,0,0,0,0],"id":3,"left_children":[1,3,5,7,-1,9,-1,11,-1,13,15,17,-1,19,21,23,25,-1,-1,-1,-1,-1,-1,-1,-1,-1,-1],"loss_changes":[2.2222913E3,4.9262817E1,1.2485791E2,5.9735107E0,0E0,5.5651794E1,0E0,5.2303467E0,0E0,1.20983826E2,1.3576202E0,2.576416E0,0E0,1.4095715E1,1.8512009E1,9.740297E0,1.9100189E-1,0E0,0E0,0E0,0E0,0E0,0E0,0E0,0E0,0E0,0E0],"parents":[2147483647,0,0,1,1,2,2,3,3,5,5,7,7,9,9,10,10,11,11,13,13,14,14,15,15,16,16],"right_children":[2,4,6,8,-1,10,-1,12,-1,14,16,18,-1,20,22,24,26,-1,-1,-1,-1,-1,-1,-1,-1,-1,-1],"split_conditions":[1.01E2,1.5493089E0,1.5493089E0,1.4285714E5,-1.4913318E-1,1.18E7,-1.7082128E-1,6E1,-5.8544422E-3,5.787025E-1,5.390613E-2,4.225352E4,2.5179535E-2,3.456E6,9.3789923E-1,2.42E7,1.54E7,1.4510384E-1,1.1844253E-1,1.4650439E-1,3.8876303E-2,-3.973491E-2,-1.6742541E-1,7.50212E-2,-1.4913318E-1,-1.2065518E-1,-1.6690868E-1],"split_indices":[3,1,1,0,0,3,0,3,0,0,0,0,0,3,0,3,3,0,0,0,0,0,0,0,0,0,0],"split_type":[0,0,0,0,0,0,0,0,0,0,0,0,0,0,0,0,0,0,0,0,0,0,0,0,0,0,0],"sum_hessian":[1.1412113E3,5.799597E2,5.612515E2,5.747901E2,5.1696463E0,1.5748175E2,4.0376974E2,5.720868E2,2.7032897E0,1.0238117E2,5.510058E1,5.6773865E2,4.3481326E0,4.981097E1,5.25702E1,7.2656274E0,4.783495E1,4.9456583E2,7.317285E1,2.2573221E1,2.7237751E1,1.7749342E1,3.482086E1,2.095981E0,5.1696463E0,1.738653E1,3.044842E1],"tree_param":{"num_deleted":"0","num_feature":"4","num_nodes":"27","size_leaf_vector":"1"}},{"base_weights":[3.7188593E-3,1.3114476E0,-1.3173039E0,1.3390808E0,-1.3953364E-1,-6.041344E-1,-1.596633E-1,1.3461325E0,-5.4239416E-3,-1.9828416E-1,-1.3485193E0,1.3546617E0,2.3227239E-2,8.2093275E-1,-1.15951E0,-7.7423716E-1,-1.4182668E0,1.3881074E-1,1.11568354E-1,1.3583305E-1,3.570595E-2,-3.562686E-2,-1.564508E-1,7.0989415E-2,-1.3953364E-1,-1.0987834E-1,-1.5596575E-1],"categories":[],"categories_nodes":[],"categories_segments":[],"categories_sizes":[],"default_left":[0,0,0,0,0,0,0,0,0,0,0,0,0,0,0,0,0,0,0,0,0,0,0,0,0,0,0],"id":4,"left_children":[1,3,5,7,-1,9,-1,11,-1,13,15,17,-1,19,21,23,25,-1,-1,-1,-1,-1,-1,-1,-1,-1,-1],"loss_changes":[1.8906604E3,4.300525E1,1.0749396E2,5.427185E0,0E0,4.6510456E1,0E0,4.83667E0,0E0,1.0027068E2,1.0833359E0,2.7505493E0,0E0,1.19268E1,1.6549843E1,8.457239E0,4.2564392E-1,0E0,0E0,0E0,0E0,0E0,0E0,0E0,0E0,0E0,0E0],"parents":[2147483647,0,0,1,1,2,2,3,3,5,5,7,7,9,9,10,10,11,11,13,13,14,14,15,15,16,16],"right_children":[2,4,6,8,-1,10,-1,12,-1,14,16,18,-1,20,22,24,26,-1,-1,-1,-1,-1,-1,-1,-1,-1,-1],"split_conditions":[1.01E2,1.5493089E0,8.555555E0,1.4285714E5,-1.3953364E-1,1.18E7,-1.596633E-1,6E1,-5.4239416E-3,5.787025E-1,5.390613E-2,4.225352E4,2.3227239E-2,3.456E6,9.3789923E-1,2.42E7,1.54E7,1.3881074E-1,1.11568354E-1,1.3583305E-1,3.570595E-2,-3.562686E-2,-1.564508E-1,7.0989415E-2,-1.3953364E-1,-1.0987834E-1,-1.5596575E-1],"split_indices":[3,1,2,0,0,3,0,3,0,0,0,0,0,3,0,3,3,0,0,0,0,0,0,0,0,0,0],"split_type":[0,0,0,0,0,0,0,0,0,0,0,0,0,0,0,0,0,0,0,0,0,0,0,0,0,0,0],"sum_hessian":[1.0924238E3,5.4897784E2,5.434459E2,5.439302E2,5.047623E0,1.5383772E2,3.8960822E2,5.4122485E2,2.7053304E0,1.0037701E2,5.346072E1,5.3689746E2,4.327404E0,4.878973E1,5.1587276E1,7.100191E0,4.636053E1,4.6676407E2,7.01334E1,2.17102E1,2.7079529E1,1.7921953E1,3.3665325E1,2.052568E0,5.047623E0,1.6913767E1,2.9446764E1],"tree_param":{"num_deleted":"0","num_feature":"4","num_nodes":"27","size_leaf_vector":"1"}},{"base_weights":[3.7702834E-3,1.2574962E0,-1.238744E0,1.2845696E0,-1.3152358E-1,-5.6235296E-1,-1.5081657E-1,1.2917477E0,-5.0252792E-3,-1.7960596E-1,-1.2641588E0,1.3041149E0,4.7048917E-1,8.527122E-1,-1.0156349E0,-1.0730277E0,-1.5595154E-1,1.3401617E-1,1.0542708E-1,6.546425E-2,2.1426106E-2,1.3320863E-1,2.5669662E-2,-2.9501593E-2,-1.476682E-1,1.7509057E-1,-1.3325115E-1],"categories":[],"categories_nodes":[],"categories_segments":[],"categories_sizes":[],"default_left":[0,0,0,0,0,0,0,0,0,0,0,0,0,0,0,0,0,0,0,0,0,0,0,0,0,0,0],"id":5,"left_children":[1,3,5,7,-1,9,-1,11,-1,13,15,17,19,21,23,25,-1,-1,-1,-1,-1,-1,-1,-1,-1,-1,-1],"loss_changes":[1.6211833E3,3.777057E1,9.4404236E1,4.9813843E0,0E0,4.019591E1,0E0,4.5706787E0,0E0,8.5914825E1,1.3153E0,3.1107178E0,2.9085302E-1,1.2412167E1,1.780606E1,2.8234947E1,0E0,0E0,0E0,0E0,0E0,0E0,0E0,0E0,0E0,0E0,0E0],"parents":[2147483647,0,0,1,1,2,2,3,3,5,5,7,7,9,9,10,10,11,11,12,12,13,13,14,14,15,15],"right_children":[2,4,6,8,-1,10,-1,12,-1,14,16,18,20,22,24,26,-1,-1,-1,-1,-1,-1,-1,-1,-1,-1,-1],"split_conditions":[1.01E2,1.5493089E0,1.5493089E0,1.4285714E5,-1.3152358E-1,1.18E7,-1.5081657E-1,5.6E1,-5.0252792E-3,5.520263E-1,7.6936826E-2,4.225352E4,6E1,4.2832395E6,9.3789923E-1,1.54E7,-1.5595154E-1,1.3401617E-1,1.0542708E-1,6.546425E-2,2.1426106E-2,1.3320863E-1,2.5669662E-2,-2.9501593E-2,-1.476682E-1,1.7509057E-1,-1.3325115E-1],"split_indices":[3,1,1,0,0,3,0,3,0,0,0,0,3,3,0,3,0,0,0,0,0,0,0,0,0,0,0],"split_type":[0,0,0,0,0,0,0,0,0,0,0,0,0,0,0,0,0,0,0,0,0,0,0,0,0,0,0],"sum_hessian":[1.0387062E3,5.1701447E2,5.216917E2,5.12126E2,4.8885136E0,1.4948714E2,3.722046E2,5.094188E2,2.7071815E0,9.7544685E1,5.1942455E1,5.0128207E2,8.136694E0,4.363937E1,5.390531E1,3.4348103E1,1.759435E1,4.3426398E2,6.70181E1,3.8294885E0,4.3072057E0,2.3501877E1,2.0137495E1,2.1671902E1,3.223341E1,2.4068599E0,3.1941244E1],"tree_param":{"num_deleted":"0","num_feature":"4","num_nodes":"27","size_leaf_vector":"1"}},{"base_weights":[3.9605047E-3,1.2110809E0,-1.1724007E0,1.2377007E0,-1.2471457E-1,-5.241111E-1,-1.4364545E-1,1.245068E0,-4.656078E-3,-1.4185327E-1,-1.1492201E0,1.2578068E0,4.4024947E-1,9.5530456E-1,-9.4444287E-1,-9.917042E-1,-1.5704833E-1,1.2960981E-1,9.9852234E-2,6.19256E-2,1.9763852E-2,1.2702E-1,4.6573054E-2,-6.2976405E-2,-2.058094E-1,2.62327E-3,-1.2645221E-1],"categories":[],"categories_nodes":[],"categories_segments":[],"categories_sizes":[],"default_left":[0,0,0,0,0,0,0,0,0,0,0,0,0,0,0,0,0,0,0,0,0,0,0,0,0,0,0],"id":6,"left_children":[1,3,5,7,-1,9,-1,11,-1,13,15,17,19,21,23,25,-1,-1,-1,-1,-1,-1,-1,-1,-1,-1,-1],"loss_changes":[1.3981335E3,3.3342407E1,8.460809E1,4.611267E0,0E0,3.4699287E1,0E0,4.352295E0,0E0,8.162816E1,2.106781E0,3.3775024E0,2.6824427E-1,5.4558716E0,1.743423E1,1.1948704E1,0E0,0E0,0E0,0E0,0E0,0E0,0E0,0E0,0E0,0E0,0E0],"parents":[2147483647,0,0,1,1,2,2,3,3,5,5,7,7,9,9,10,10,11,11,12,12,13,13,14,14,15,15],"right_children":[2,4,6,8,-1,10,-1,12,-1,14,16,18,20,22,24,26,-1,-1,-1,-1,-1,-1,-1,-1,-1,-1,-1],"split_conditions":[1.01E2,1.5493089E0,1.5493089E0,1.4285714E5,-1.2471457E-1,9.215732E6,-1.4364545E-1,5.6E1,-4.656078E-3,5.520263E-1,1.0515315E-1,4.225352E4,6E1,4.2832395E6,1.8455526E6,1.54E7,-1.5704833E-1,1.2960981E-1,9.9852234E-2,6.19256E-2,1.9763852E-2,1.2702E-1,4.6573054E-2,-6.2976405E-2,-2.058094E-1,2.62327E-3,-1.2645221E-1],"split_indices":[3,1,1,0,0,3,0,3,0,0,0,0,3,3,3,3,0,0,0,0,0,0,0,0,0,0,0],"split_type":[0,0,0,0,0,0,0,0,0,0,0,0,0,0,0,0,0,0,0,0,0,0,0,0,0,0,0],"sum_hessian":[9.825944E2,4.849424E2,4.9765204E2,4.8023846E2,4.703928E0,1.448962E2,3.5275586E2,4.775296E2,2.7088628E0,9.067489E1,5.42213E1,4.6953485E2,7.9947586E0,3.822719E1,5.24477E1,4.190615E1,1.2315149E1,4.05632E2,6.390286E1,3.7070825E0,4.287676E0,2.2293467E1,1.5933724E1,4.2113415E1,1.0334283E1,9.048452E0,3.2857697E1],"tree_param":{"num_deleted":"0","num_feature":"4","num_nodes":"27","size_leaf_vector":"1"}},{"base_weights":[3.9210715E-3,-1.1137826E0,1.1702425E0,-4.900958E-1,-1.3774942E-1,1.1987759E0,-1.20137505E-1,-2.3756097E-1,-1.3863756E-1,1.2448025E0,9.0495634E-1,1.1447368E0,-7.0490265E-1,1.2586081E-1,4.9443927E-2,1.0979061E0,-2.883571E-1,1.2272735E-1,-1.35860415E-2,-1.4014438E-2,-1.1129884E-1,1.1506631E-1,-4.3141404E-3],"categories":[],"categories_nodes":[],"categories_segments":[],"categories_sizes":[],"default_left":[0,0,0,0,0,0,0,0,0,0,0,0,0,0,0,0,0,0,0,0,0,0,0],"id":7,"left_children":[1,3,5,7,-1,9,-1,11,-1,13,15,17,19,-1,-1,21,-1,-1,-1,-1,-1,-1,-1],"loss_changes":[1.2107521E3,7.733032E1,3.219635E1,3.192302E1,0E0,4.9536133E0,0E0,7.3403404E1,0E0,3.376831E0,5.035418E1,3.2081566E0,1.934232E1,0E0,0E0,3.7909317E0,0E0,0E0,0E0,0E0,0E0,0E0,0E0],"parents":[2147483647,0,0,1,1,2,2,3,3,5,5,7,7,9,9,10,10,11,11,12,12,15,15],"right_children":[2,4,6,8,-1,10,-1,12,-1,14,16,18,20,-1,-1,22,-1,-1,-1,-1,-1,-1,-1],"split_conditions":[1.6528926E4,8.555555E0,1.5493089E0,9.3789923E-1,-1.3774942E-1,4.225352E4,-1.20137505E-1,3.324114E6,-1.3863756E-1,5.6E1,3.65E1,6.789892E-1,1.18E7,1.2586081E-1,4.9443927E-2,1.4285714E5,-2.883571E-1,1.2272735E-1,-1.35860415E-2,-1.4014438E-2,-1.1129884E-1,1.1506631E-1,-4.3141404E-3],"split_indices":[0,2,1,0,0,0,0,3,0,3,3,0,3,0,0,0,0,0,0,0,0,0,0],"split_type":[0,0,0,0,0,0,0,0,0,0,0,0,0,0,0,0,0,0,0,0,0,0,0],"sum_hessian":[9.2677466E2,4.73274E2,4.5350067E2,1.4149406E2,3.3177994E2,4.4859802E2,4.902631E0,1.113775E2,3.0116554E1,3.850446E2,6.3553463E1,2.777512E1,8.360239E1,3.774232E2,7.6213903E0,6.114933E1,2.4041336E0,2.6132477E1,1.6426429E0,3.5632816E1,4.796957E1,5.843894E1,2.7103915E0],"tree_param":{"num_deleted":"0","num_feature":"4","num_nodes":"23","size_leaf_vector":"1"}},{"base_weights":[3.7301534E-3,-1.0646168E0,1.1343825E0,-4.5865536E-1,-1.3284414E-1,1.1625766E0,-1.14964426E-1,-2.1979946E-1,-1.3302746E-1,1.2116817E0,8.570579E-1,1.1158959E0,-6.540658E-1,1.2264198E-1,4.5867774E-1,1.0516875E0,-2.4256206E-1,1.2012283E-1,-1.2714155E-2,-4.52793E-2,-1.8757044E-1,5.592344E-2,2.759747E-2,1.1474358E-1,3.2575212E-2],"categories":[],"categories_nodes":[],"categories_segments":[],"categories_sizes":[],"default_left":[0,0,0,0,0,0,0,0,0,0,0,0,0,0,0,0,0,0,0,0,0,0,0,0,0],"id":8,"left_children":[1,3,5,7,-1,9,-1,11,-1,13,15,17,19,-1,21,23,-1,-1,-1,-1,-1,-1,-1,-1,-1],"loss_changes":[1.0532145E3,7.10614E1,2.8615051E1,2.8336031E1,0E0,5.246643E0,0E0,6.403077E1,0E0,3.4161377E0,4.179736E1,3.0320396E0,1.9555374E1,0E0,1.4528036E-3,3.705368E0,0E0,0E0,0E0,0E0,0E0,0E0,0E0,0E0,0E0],"parents":[2147483647,0,0,1,1,2,2,3,3,5,5,7,7,9,9,10,10,11,11,12,12,14,14,15,15],"right_children":[2,4,6,8,-1,10,-1,12,-1,14,16,18,20,-1,22,24,-1,-1,-1,-1,-1,-1,-1,-1,-1],"split_conditions":[1.6528926E4,1.5493089E0,1.5493089E0,9.3789923E-1,-1.3284414E-1,4.225352E4,-1.14964426E-1,3.324114E6,-1.3302746E-1,5.6E1,3.65E1,6.789892E-1,3.167205E-1,1.2264198E-1,6E1,1.1538462E5,-2.4256206E-1,1.2012283E-1,-1.2714155E-2,-4.52793E-2,-1.8757044E-1,5.592344E-2,2.759747E-2,1.1474358E-1,3.2575212E-2],"split_indices":[0,1,1,0,0,0,0,3,0,3,3,0,0,0,3,0,0,0,0,0,0,0,0,0,0],"split_type":[0,0,0,0,0,0,0,0,0,0,0,0,0,0,0,0,0,0,0,0,0,0,0,0,0],"sum_hessian":[8.6991766E2,4.4731277E2,4.226049E2,1.3651013E2,3.1080264E2,4.1793686E2,4.668017E0,1.0813054E2,2.8379593E1,3.575094E2,6.0427452E1,2.61451E1,8.198544E1,3.5002982E2,7.479609E0,5.7686836E1,2.7406178E0,2.4497055E1,1.6480454E0,7.1565254E1,1.042019E1,3.495083E0,3.9845257E0,5.045179E1,7.2350464E0],"tree_param":{"num_deleted":"0","num_feature":"4","num_nodes":"25","size_leaf_vector":"1"}},{"base_weights":[3.57486E-3,-1.018459E0,1.102638E0,-4.268397E-1,-1.2869094E-1,1.1305689E0,-1.10377885E-1,-8.521235E-2,-9.8613715E-1,1.1828551E0,8.137608E-1,8.892645E-1,-8.083306E-1,-8.277123E-1,-1.4127298E-1,1.1985596E-1,4.299307E-1,1.0087684E0,-2.1059528E-1,1.3766877E-1,4.9577743E-2,-1.8128546E-2,-1.2826276E-1,1.460166E-2,-1.1137601E-1,5.290651E-2,2.5543068E-2,1.10735096E-1,3.0069057E-2],"categories":[],"categories_nodes":[],"categories_segments":[],"categories_sizes":[],"default_left":[0,0,0,0,0,0,0,0,0,0,0,0,0,0,0,0,0,0,0,0,0,0,0,0,0,0,0,0,0],"id":9,"left_children":[1,3,5,7,-1,9,-1,11,13,15,17,19,21,23,-1,-1,25,27,-1,-1,-1,-1,-1,-1,-1,-1,-1,-1,-1],"loss_changes":[9.182022E2,6.672064E1,2.5521088E1,2.5462267E1,0E0,5.4884644E0,0E0,5.9978252E1,2.250637E0,3.4111328E0,3.5360218E1,6.2793007E0,1.4280254E1,1.1113197E1,0E0,0E0,9.204507E-3,3.533821E0,0E0,0E0,0E0,0E0,0E0,0E0,0E0,0E0,0E0,0E0,0E0],"parents":[2147483647,0,0,1,1,2,2,3,3,5,5,7,7,8,8,9,9,10,10,11,11,12,12,13,13,16,16,17,17],"right_children":[2,4,6,8,-1,10,-1,12,14,16,18,20,22,24,-1,-1,26,28,-1,-1,-1,-1,-1,-1,-1,-1,-1,-1,-1],"split_conditions":[1.6528926E4,1.5493089E0,1.5493089E0,9.215732E6,-1.2869094E-1,4.225352E4,-1.10377885E-1,5.520263E-1,1.0515315E-1,5.6E1,3.65E1,2.530493E-1,9.3789923E-1,1.54E7,-1.4127298E-1,1.1985596E-1,6E1,1.1538462E5,-2.1059528E-1,1.3766877E-1,4.9577743E-2,-1.8128546E-2,-1.2826276E-1,1.460166E-2,-1.1137601E-1,5.290651E-2,2.5543068E-2,1.10735096E-1,3.0069057E-2],"split_indices":[0,1,1,3,0,0,0,0,0,3,3,0,0,3,0,0,3,0,0,0,0,0,0,0,0,0,0,0,0],"split_type":[0,0,0,0,0,0,0,0,0,0,0,0,0,0,0,0,0,0,0,0,0,0,0,0,0,0,0,0,0],"sum_hessian":[8.1543E2,4.2255948E2,3.9287054E2,1.3270035E2,2.8985913E2,3.884409E2,4.4296565E0,8.309625E1,4.9604095E1,3.3106754E2,5.7373333E1,3.529833E1,4.7797924E1,3.8315174E1,1.128892E1,3.2372345E2,7.34408E0,5.4394802E1,2.9785295E0,1.4651021E1,2.0647308E1,2.1179607E1,2.6618317E1,8.811088E0,2.9504087E1,3.3876472E0,3.9564326E0,4.72522E1,7.1426015E0],"tree_param":{"num_deleted":"0","num_feature":"4","num_nodes":"29","size_leaf_vector":"1"}},{"base_weights":[3.2730936E-3,-9.7906E-1,1.0741993E0,-4.0087E-1,-1.2515399E-1,1.1019365E0,-1.0626184E-1,-1.8831933E-1,-1.2416389E-1,1.1574476E0,7.7432764E-1,1.1518133E0,-5.651812E-1,1.17426895E-1,4.0292647E-1,9.68841E-1,-1.8713732E-1,1.2538119E-1,-1.0739843E-2,-3.705483E-2,-1.7156684E-1,5.0044216E-2,2.364014E-2,1.0706893E-1,2.7742583E-2],"categories":[],"categories_nodes":[],"categories_segments":[],"categories_sizes":[],"default_left":[0,0,0,0,0,0,0,0,0,0,0,0,0,0,0,0,0,0,0,0,0,0,0,0,0],"id":10,"left_children":[1,3,5,7,-1,9,-1,11,-1,13,15,17,19,-1,21,23,-1,-1,-1,-1,-1,-1,-1,-1,-1],"loss_changes":[8.036006E2,6.2267212E1,2.2831299E1,2.283525E1,0E0,5.673645E0,0E0,5.3286354E1,0E0,3.422058E0,3.0305477E1,3.1149483E0,1.7729284E1,0E0,1.5099883E-2,3.381157E0,0E0,0E0,0E0,0E0,0E0,0E0,0E0,0E0,0E0],"parents":[2147483647,0,0,1,1,2,2,3,3,5,5,7,7,9,9,10,10,11,11,12,12,14,14,15,15],"right_children":[2,4,6,8,-1,10,-1,12,-1,14,16,18,20,-1,22,24,-1,-1,-1,-1,-1,-1,-1,-1,-1],"split_conditions":[1.6528926E4,1.5493089E0,1.5493089E0,9.3789923E-1,-1.2515399E-1,4.225352E4,-1.0626184E-1,3.1345828E6,-1.2416389E-1,5.6E1,3.65E1,6.789892E-1,3.5033017E-1,1.17426895E-1,6E1,1.1538462E5,-1.8713732E-1,1.2538119E-1,-1.0739843E-2,-3.705483E-2,-1.7156684E-1,5.0044216E-2,2.364014E-2,1.0706893E-1,2.7742583E-2],"split_indices":[0,1,1,0,0,0,0,3,0,3,3,0,0,0,3,0,0,0,0,0,0,0,0,0,0],"split_type":[0,0,0,0,0,0,0,0,0,0,0,0,0,0,0,0,0,0,0,0,0,0,0,0,0],"sum_hessian":[7.6187463E2,3.9741858E2,3.644561E2,1.2808954E2,2.6932904E2,3.6026395E2,4.1921296E0,1.03219185E2,2.4870352E1,3.0589847E2,5.4365486E1,2.2204163E1,8.101502E1,2.9868326E2,7.215206E0,5.123264E1,3.1328464E0,2.0544323E1,1.6598411E0,7.042329E1,1.0591735E1,3.2858405E0,3.9293659E0,4.4176685E1,7.055957E0],"tree_param":{"num_deleted":"0","num_feature":"4","num_nodes":"25","size_leaf_vector":"1"}},{"base_weights":[3.0929253E-3,1.0620575E0,-9.291162E-1,1.0854925E0,-9.8816566E-2,-3.5392112E-1,-1.2213569E-1,1.1468767E0,7.37964E-1,-5.194711E-2,-9.4755656E-1,1.1564753E-1,6.424571E-1,9.312571E-1,-1.6922681E-1,6.8383026E-1,-6.439072E-1,-2.7873304E-1,-1.0506709E0,9.9118516E-2,-1.5417203E-2,9.9325486E-2,-1.0659499E-2,1.1205089E-1,2.4917586E-2,-3.5261463E-2,-1.5936223E-1,9.9835984E-2,-1.0619958E-1,-6.955154E-2,-1.2404908E-1],"categories":[],"categories_nodes":[],"categories_segments":[],"categories_sizes":[],"default_left":[0,0,0,0,0,0,0,0,0,0,0,0,0,0,0,0,0,0,0,0,0,0,0,0,0,0,0,0,0,0,0],"id":11,"left_children":[1,3,5,7,-1,9,-1,11,13,15,17,-1,19,21,-1,23,25,27,29,-1,-1,-1,-1,-1,-1,-1,-1,-1,-1,-1,-1],"loss_changes":[7.041542E2,1.7117645E1,6.3335785E1,6.2073364E0,0E0,2.3113962E1,0E0,6.088257E-1,2.6209562E1,3.8204582E1,2.7077713E0,0E0,2.226275E0,3.2730064E0,0E0,7.150011E0,1.2872816E1,8.235377E0,1.6542625E0,0E0,0E0,0E0,0E0,0E0,0E0,0E0,0E0,0E0,0E0,0E0,0E0],"parents":[2147483647,0,0,1,1,2,2,3,3,5,5,7,7,8,8,9,9,10,10,12,12,13,13,15,15,16,16,17,17,18,18],"right_children":[2,4,6,8,-1,10,-1,12,14,16,18,-1,20,22,-1,24,26,28,30,-1,-1,-1,-1,-1,-1,-1,-1,-1,-1,-1,-1],"split_conditions":[6E1,1.5493089E0,8.555555E0,4.225352E4,-9.8816566E-2,1.18E7,-1.2213569E-1,5.5E1,3.65E1,5.520263E-1,5.390613E-2,1.1564753E-1,2.7272727E4,1.4285714E5,-1.6922681E-1,4.2832395E6,1.8455526E6,2.42E7,1.54E7,9.9118516E-2,-1.5417203E-2,9.9325486E-2,-1.0659499E-2,1.1205089E-1,2.4917586E-2,-3.5261463E-2,-1.5936223E-1,9.9835984E-2,-1.0619958E-1,-6.955154E-2,-1.2404908E-1],"split_indices":[3,1,2,0,0,3,0,3,3,0,0,0,0,0,0,3,3,3,3,0,0,0,0,0,0,0,0,0,0,0,0],"split_type":[0,0,0,0,0,0,0,0,0,0,0,0,0,0,0,0,0,0,0,0,0,0,0,0,0,0,0,0,0,0,0],"sum_hessian":[7.1130164E2,3.3294534E2,3.783563E2,3.2964786E2,3.2974687E0,1.282138E2,2.5014247E2,2.782077E2,5.144016E1,8.570459E1,4.2509212E1,2.7174402E2,6.4636807E0,4.8221565E1,3.2185917E0,3.8141445E1,4.7563145E1,6.1729765E0,3.6336235E1,4.3258123E0,2.1378682E0,4.5543903E1,2.6776636E0,1.8239286E1,1.990216E1,3.744841E1,1.0114735E1,2.2423143E0,3.9306624E0,1.42807865E1,2.205545E1],"tree_param":{"num_deleted":"0","num_feature":"4","num_nodes":"31","size_leaf_vector":"1"}},{"base_weights":[2.7218664E-3,-9.0743977E-1,1.0253652E0,-3.5141036E-1,-1.1951112E-1,1.0528848E0,-9.91061E-2,-1.4513898E-1,-1.19647406E-1,1.1129025E0,6.910247E-1,4.713212E-1,-8.689064E-1,1.1317008E-1,3.6698494E-2,8.778493E-1,-1.5212393E-1,1.11393444E-1,5.1592966E-3,-7.028505E-2,-1.3156503E-1,9.930729E-2,2.1397278E-2],"categories":[],"categories_nodes":[],"categories_segments":[],"categories_sizes":[],"default_left":[0,0,0,0,0,0,0,0,0,0,0,0,0,0,0,0,0,0,0,0,0,0,0],"id":12,"left_children":[1,3,5,7,-1,9,-1,11,-1,13,15,17,19,-1,-1,21,-1,-1,-1,-1,-1,-1,-1],"loss_changes":[6.1899963E2,5.5863403E1,1.842157E1,2.098656E1,0E0,5.9512634E0,0E0,4.445284E1,0E0,3.2833557E0,2.0619928E1,1.4495919E1,2.469719E0,0E0,0E0,3.1272354E0,0E0,0E0,0E0,0E0,0E0,0E0,0E0],"parents":[2147483647,0,0,1,1,2,2,3,3,5,5,7,7,9,9,10,10,11,11,12,12,15,15],"right_children":[2,4,6,8,-1,10,-1,12,-1,14,16,18,20,-1,-1,22,-1,-1,-1,-1,-1,-1,-1],"split_conditions":[1.6528926E4,1.5493089E0,1.5493089E0,9.3789923E-1,-1.1951112E-1,4.5454547E4,-9.91061E-2,9.215732E6,-1.19647406E-1,5.6E1,3.45E1,3.1345828E6,1.0515315E-1,1.1317008E-1,3.6698494E-2,1.1538462E5,-1.5212393E-1,1.11393444E-1,5.1592966E-3,-7.028505E-2,-1.3156503E-1,9.930729E-2,2.1397278E-2],"split_indices":[0,1,1,0,0,0,0,3,0,3,3,3,0,0,0,0,0,0,0,0,0,0,0],"split_type":[0,0,0,0,0,0,0,0,0,0,0,0,0,0,0,0,0,0,0,0,0,0,0],"sum_hessian":[6.630402E2,3.508729E2,3.1216733E2,1.20392426E2,2.3048047E2,3.0843573E2,3.7316034E0,9.771335E1,2.2679077E1,2.627765E2,4.5659237E1,5.2956814E1,4.4756535E1,2.5581242E2,6.9640646E0,4.265983E1,2.999411E0,2.0269625E1,3.2687187E1,3.4504425E1,1.0252109E1,3.5928192E1,6.7316337E0],"tree_param":{"num_deleted":"0","num_feature":"4","num_nodes":"23","size_leaf_vector":"1"}},{"base_weights":[2.3294652E-3,-8.772974E-1,1.0031707E0,-3.3116603E-1,-1.17223956E-1,1.0306458E0,-9.593949E-2,-1.3554187E-1,-1.1661656E-1,1.096706E0,6.705522E-1,4.3769142E-1,-8.1763256E-1,1.117501E-1,3.3981826E-2,8.614646E-1,-1.4545827E-1,1.2835062E-1,9.399735E-3,-6.554304E-2,-1.2643193E-1,9.759512E-2,1.9702032E-2],"categories":[],"categories_nodes":[],"categories_segments":[],"categories_sizes":[],"default_left":[0,0,0,0,0,0,0,0,0,0,0,0,0,0,0,0,0,0,0,0,0,0,0],"id":13,"left_children":[1,3,5,7,-1,9,-1,11,-1,13,15,17,19,-1,-1,21,-1,-1,-1,-1,-1,-1,-1],"loss_changes":[5.446845E2,5.2653366E1,1.6594238E1,1.8931871E1,0E0,6.0654297E0,0E0,3.782191E1,0E0,3.3977966E0,2.0277653E1,1.5203425E1,2.3667126E0,0E0,0E0,3.1284943E0,0E0,0E0,0E0,0E0,0E0,0E0,0E0],"parents":[2147483647,0,0,1,1,2,2,3,3,5,5,7,7,9,9,10,10,11,11,12,12,15,15],"right_children":[2,4,6,8,-1,10,-1,12,-1,14,16,18,20,-1,-1,22,-1,-1,-1,-1,-1,-1,-1],"split_conditions":[1.6528926E4,1.5493089E0,1.5493089E0,9.3789923E-1,-1.17223956E-1,4.225352E4,-9.593949E-2,9.215732E6,-1.1661656E-1,5.6E1,3.65E1,2.530493E-1,1.0515315E-1,1.117501E-1,3.3981826E-2,1.1538462E5,-1.4545827E-1,1.2835062E-1,9.399735E-3,-6.554304E-2,-1.2643193E-1,9.759512E-2,1.9702032E-2],"split_indices":[0,1,1,0,0,0,0,3,0,3,3,0,0,0,0,0,0,0,0,0,0,0,0],"split_type":[0,0,0,0,0,0,0,0,0,0,0,0,0,0,0,0,0,0,0,0,0,0,0],"sum_hessian":[6.16702E2,3.2829294E2,2.884091E2,1.1586804E2,2.1242488E2,2.848955E2,3.5135772E0,9.4816666E1,2.1051374E1,2.3900398E2,4.5891537E1,5.1714115E1,4.3102554E1,2.3214941E2,6.854569E0,4.26543E1,3.237237E0,1.4152079E1,3.7562035E1,3.3430492E1,9.672063E0,3.5985096E1,6.6692038E0],"tree_param":{"num_deleted":"0","num_feature":"4","num_nodes":"23","size_leaf_vector":"1"}},{"base_weights":[1.911811E-3,9.979112E-1,-8.3456874E-1,1.0214252E0,-8.91827E-2,-2.9237422E-1,-1.1523344E-1,1.0947424E0,6.401701E-1,-3.4413043E-2,-8.201628E-1,1.10692754E-1,5.379501E-1,8.282932E-1,-1.3572222E-1,6.1453766E-1,-5.6863993E-1,-1.5329275E-1,-9.3167335E-1,9.315583E-2,-2.9814309E-2,9.468854E-2,1.8132929E-2,1.0881815E-1,1.8904556E-2,-2.555469E-2,-1.509148E-1,1.022015E-1,-9.771418E-2,-5.247366E-2,-1.1664535E-1],"categories":[],"categories_nodes":[],"categories_segments":[],"categories_sizes":[],"default_left":[0,0,0,0,0,0,0,0,0,0,0,0,0,0,0,0,0,0,0,0,0,0,0,0,0,0,0,0,0,0,0],"id":14,"left_children":[1,3,5,7,-1,9,-1,11,13,15,17,-1,19,21,-1,23,25,27,29,-1,-1,-1,-1,-1,-1,-1,-1,-1,-1,-1,-1],"loss_changes":[4.7961276E2,1.25876465E1,5.357187E1,6.5672913E0,0E0,1.5895507E1,0E0,8.7454224E-1,1.7787361E1,2.7947342E1,2.7092648E0,0E0,2.4450133E0,2.9855042E0,0E0,7.134794E0,1.2624185E1,7.4778223E0,2.5084686E0,0E0,0E0,0E0,0E0,0E0,0E0,0E0,0E0,0E0,0E0,0E0,0E0],"parents":[2147483647,0,0,1,1,2,2,3,3,5,5,7,7,8,8,9,9,10,10,12,12,13,13,15,15,16,16,17,17,18,18],"right_children":[2,4,6,8,-1,10,-1,12,14,16,18,-1,20,22,-1,24,26,28,30,-1,-1,-1,-1,-1,-1,-1,-1,-1,-1,-1,-1],"split_conditions":[6E1,1.5493089E0,1.5493089E0,4.225352E4,-8.91827E-2,1.18E7,-1.1523344E-1,5.5E1,3.65E1,5.520263E-1,5.390613E-2,1.10692754E-1,2.7272727E4,1.1538462E5,-1.3572222E-1,4.2832395E6,1.8455526E6,2.42E7,1.54E7,9.315583E-2,-2.9814309E-2,9.468854E-2,1.8132929E-2,1.0881815E-1,1.8904556E-2,-2.555469E-2,-1.509148E-1,1.022015E-1,-9.771418E-2,-5.247366E-2,-1.1664535E-1],"split_indices":[3,1,1,0,0,3,0,3,3,0,0,0,0,0,0,3,3,3,3,0,0,0,0,0,0,0,0,0,0,0,0],"split_type":[0,0,0,0,0,0,0,0,0,0,0,0,0,0,0,0,0,0,0,0,0,0,0,0,0,0,0,0,0,0,0],"sum_hessian":[5.736733E2,2.617792E2,3.118941E2,2.5901575E2,2.763446E0,1.15958145E2,1.9593596E2,2.1566995E2,4.3345802E1,7.860465E1,3.7353493E1,2.1008435E2,5.585598E0,4.0149647E1,3.1961553E0,3.54236E1,4.3181053E1,5.691447E0,3.1662046E1,3.7201023E0,1.8654954E0,3.35383E1,6.611348E0,1.6026245E1,1.9397354E1,3.3350468E1,9.8305855E0,2.2463107E0,3.4451363E0,1.2767524E1,1.8894524E1],"tree_param":{"num_deleted":"0","num_feature":"4","num_nodes":"31","size_leaf_vector":"1"}},{"base_weights":[1.5460487E-3,-8.1956345E-1,9.635993E-1,-2.9303774E-1,-1.134596E-1,9.9110186E-1,-9.0206735E-2,-1.02192834E-1,-1.13351226E-1,1.0649008E0,6.110979E-1,1.0451561E0,-4.1505167E-1,1.0891392E-1,3.0310896E-1,7.960154E-1,-1.2753049E-1,1.15239196E-1,-6.9045736E-3,-2.2996193E-2,-1.4490858E-1,3.601055E-2,1.5974108E-2,9.1875724E-2,1.6681602E-2],"categories":[],"categories_nodes":[],"categories_segments":[],"categories_sizes":[],"default_left":[0,0,0,0,0,0,0,0,0,0,0,0,0,0,0,0,0,0,0,0,0,0,0,0,0],"id":15,"left_children":[1,3,5,7,-1,9,-1,11,-1,13,15,17,19,-1,21,23,-1,-1,-1,-1,-1,-1,-1,-1,-1],"loss_changes":[4.2304156E2,4.759314E1,1.3547195E1,1.7449203E1,0E0,6.1777344E0,0E0,3.286291E1,0E0,3.4098969E0,1.5646526E1,2.426279E0,1.338968E1,0E0,4.8374534E-3,2.8444138E0,0E0,0E0,0E0,0E0,0E0,0E0,0E0,0E0,0E0],"parents":[2147483647,0,0,1,1,2,2,3,3,5,5,7,7,9,9,10,10,11,11,12,12,14,14,15,15],"right_children":[2,4,6,8,-1,10,-1,12,-1,14,16,18,20,-1,22,24,-1,-1,-1,-1,-1,-1,-1,-1,-1],"split_conditions":[1.6528926E4,8.555555E0,1.5493089E0,9.3789923E-1,-1.134596E-1,4.225352E4,-9.0206735E-2,3.1345828E6,-1.13351226E-1,5.6E1,3.65E1,6.789892E-1,3.5033017E-1,1.0891392E-1,2.5423729E4,1.1538462E5,-1.2753049E-1,1.15239196E-1,-6.9045736E-3,-2.2996193E-2,-1.4490858E-1,3.601055E-2,1.5974108E-2,9.1875724E-2,1.6681602E-2],"split_indices":[0,2,1,0,0,0,0,3,0,3,3,0,0,0,0,0,0,0,0,0,0,0,0,0,0],"split_type":[0,0,0,0,0,0,0,0,0,0,0,0,0,0,0,0,0,0,0,0,0,0,0,0,0],"sum_hessian":[5.335292E2,2.8792996E2,2.4559921E2,1.0850751E2,1.7942244E2,2.4249329E2,3.105925E0,8.934231E1,1.9165195E1,2.0154903E2,4.0944256E1,1.8640657E1,7.070165E1,1.9491747E2,6.631561E0,3.7815372E1,3.1288846E0,1.697284E1,1.6678176E0,6.10044E1,9.697254E0,3.6634018E0,2.9681587E0,3.1257565E1,6.557807E0],"tree_param":{"num_deleted":"0","num_feature":"4","num_nodes":"25","size_leaf_vector":"1"}},{"base_weights":[1.2225476E-3,9.615758E-1,-7.7792245E-1,9.85341E-1,-8.37456E-2,-2.5578937E-1,-1.1193272E-1,1.0676495E0,5.830998E-1,-5.2888794E-3,-7.7127105E-1,1.08205654E-1,4.7910357E-1,7.6444584E-1,-1.20520346E-1,3.6404452E-1,-8.804189E-1,-5.260154E-1,-1.1695856E-1,8.959077E-2,-3.4927856E-2,8.913074E-2,1.5340063E-2,1.0390915E-1,1.3557145E-3,-1.1096974E-1,1.8536175E-2,2.04577E-1,-8.829868E-2],"categories":[],"categories_nodes":[],"categories_segments":[],"categories_sizes":[],"default_left":[0,0,0,0,0,0,0,0,0,0,0,0,0,0,0,0,0,0,0,0,0,0,0,0,0,0,0,0,0],"id":16,"left_children":[1,3,5,7,-1,9,-1,11,13,15,17,-1,19,21,-1,23,25,27,-1,-1,-1,-1,-1,-1,-1,-1,-1,-1,-1],"loss_changes":[3.7274902E2,1.0365021E1,4.873967E1,6.683731E0,0E0,1.4203893E1,0E0,1.024765E0,1.37927265E1,2.4578897E1,2.899269E0,0E0,2.433991E0,2.7041016E0,0E0,1.2640566E1,5.7201786E0,2.391642E1,0E0,0E0,0E0,0E0,0E0,0E0,0E0,0E0,0E0,0E0,0E0],"parents":[2147483647,0,0,1,1,2,2,3,3,5,5,7,7,8,8,9,9,10,10,12,12,13,13,15,15,16,16,17,17],"right_children":[2,4,6,8,-1,10,-1,12,14,16,18,-1,20,22,-1,24,26,28,-1,-1,-1,-1,-1,-1,-1,-1,-1,-1,-1],"split_conditions":[6E1,1.5493089E0,1.5493089E0,4.225352E4,-8.37456E-2,1.18E7,-1.1193272E-1,5.5E1,3.65E1,9.3789923E-1,7.6936826E-2,1.08205654E-1,2.7272727E4,1.1538462E5,-1.20520346E-1,3.1345828E6,1.6528926E4,1.54E7,-1.1695856E-1,8.959077E-2,-3.4927856E-2,8.913074E-2,1.5340063E-2,1.0390915E-1,1.3557145E-3,-1.1096974E-1,1.8536175E-2,2.04577E-1,-8.829868E-2],"split_indices":[3,1,1,0,0,3,0,3,3,0,0,0,0,0,0,3,0,3,0,0,0,0,0,0,0,0,0,0,0],"split_type":[0,0,0,0,0,0,0,0,0,0,0,0,0,0,0,0,0,0,0,0,0,0,0,0,0,0,0,0,0],"sum_hessian":[4.961584E2,2.2213124E2,2.7402713E2,2.1968153E2,2.4497006E0,1.0902979E2,1.6499734E2,1.809919E2,3.8689636E1,7.405346E1,3.4976334E1,1.7584872E2,5.143165E0,3.5647293E1,3.0423462E0,5.248647E1,2.1566992E1,2.3083591E1,1.189274E1,3.367352E0,1.775813E0,2.9138975E1,6.508317E0,1.7266357E1,3.522011E1,1.771484E1,3.8521507E0,2.236916E0,2.0846676E1],"tree_param":{"num_deleted":"0","num_feature":"4","num_nodes":"29","size_leaf_vector":"1"}},{"base_weights":[1.1166007E-3,9.4447E-1,-7.5340796E-1,1.046047E0,4.585198E-1,-2.4042149E-1,-1.1054643E-1,1.06695116E-1,5.74305E-1,6.319103E-1,-1.1145257E-1,-5.0289305E-3,-7.325082E-1,9.6429825E-2,-3.537126E-2,7.78588E-1,-4.1655764E-1,3.373705E-1,-8.521569E-1,-4.9003237E-1,-1.13640085E-1,8.282264E-2,3.438307E-2,-1.6662633E-2,-6.390504E-2,1.0021161E-1,1.2240885E-3,-1.0879884E-1,1.7146807E-2,1.8262963E-1,-8.417356E-2],"categories":[],"categories_nodes":[],"categories_segments":[],"categories_sizes":[],"default_left":[0,0,0,0,0,0,0,0,0,0,0,0,0,0,0,0,0,0,0,0,0,0,0,0,0,0,0,0,0,0,0],"id":17,"left_children":[1,3,5,7,9,11,-1,-1,13,15,-1,17,19,-1,-1,21,23,25,27,29,-1,-1,-1,-1,-1,-1,-1,-1,-1,-1,-1],"loss_changes":[3.2914432E2,9.663956E0,4.6135086E1,1.0556641E0,1.0880222E1,1.2256372E1,0E0,0E0,3.72316E0,5.590391E0,0E0,2.134595E1,2.7964573E0,0E0,0E0,3.7103653E-1,1.6343707E-1,1.131714E1,5.299839E0,2.0399836E1,0E0,0E0,0E0,0E0,0E0,0E0,0E0,0E0,0E0,0E0,0E0],"parents":[2147483647,0,0,1,1,2,2,3,3,4,4,5,5,8,8,9,9,11,11,12,12,15,15,16,16,17,17,18,18,19,19],"right_children":[2,4,6,8,10,12,-1,-1,14,16,-1,18,20,-1,-1,22,24,26,28,30,-1,-1,-1,-1,-1,-1,-1,-1,-1,-1,-1],"split_conditions":[6E1,4.5454547E4,1.5493089E0,5.4E1,3.45E1,1.18E7,-1.1054643E-1,1.06695116E-1,2.7777777E4,1.4285714E5,-1.1145257E-1,9.3789923E-1,7.6936826E-2,9.6429825E-2,-3.537126E-2,1.1538462E5,1.5493089E0,3.1345828E6,1.6528926E4,1.54E7,-1.13640085E-1,8.282264E-2,3.438307E-2,-1.6662633E-2,-6.390504E-2,1.0021161E-1,1.2240885E-3,-1.0879884E-1,1.7146807E-2,1.8262963E-1,-8.417356E-2],"split_indices":[3,0,1,3,3,3,0,0,0,0,0,0,0,0,0,0,1,3,0,3,0,0,0,0,0,0,0,0,0,0,0],"split_type":[0,0,0,0,0,0,0,0,0,0,0,0,0,0,0,0,0,0,0,0,0,0,0,0,0,0,0,0,0,0,0],"sum_hessian":[4.604224E2,2.0449648E2,2.5592592E2,1.6818796E2,3.6308514E1,1.04841995E2,1.5108392E2,1.5984315E2,8.344801E0,3.3242603E1,3.065911E0,7.160131E1,3.3240685E1,5.848087E0,2.496714E0,2.938862E1,3.853981E0,5.1419773E1,2.0181538E1,2.215392E1,1.1086768E1,2.5564735E1,3.8238864E0,2.6387346E0,1.2152464E0,1.620518E1,3.5214592E1,1.6351469E1,3.830069E0,2.3676677E0,1.9786251E1],"tree_param":{"num_deleted":"0","num_feature":"4","num_nodes":"31","size_leaf_vector":"1"}},{"base_weights":[1.008199E-3,9.266016E-1,-7.297193E-1,1.0332383E0,4.3394682E-1,-2.2601289E-1,-1.093089E-1,1.0499407E-1,4.071153E-1,6.022605E-1,-1.06606185E-1,-4.8112376E-3,-6.9668835E-1,8.462296E-2,-3.744137E-2,7.484383E-1,-3.9562246E-1,8.402531E-1,-3.5526752E-1,1.7672442E-2,-8.304071E-1,1.01392925E-1,6.1291125E-2,-1.5415519E-2,-6.2018283E-2,1.12198405E-1,-2.3982769E-2,-5.303942E-4,-1.2441677E-1,1.0854217E-1,-8.8526405E-2,-4.1066542E-2,-1.0943847E-1],"categories":[],"categories_nodes":[],"categories_segments":[],"categories_sizes":[],"default_left":[0,0,0,0,0,0,0,0,0,0,0,0,0,0,0,0,0,0,0,0,0,0,0,0,0,0,0,0,0,0,0,0,0],"id":18,"left_children":[1,3,5,7,9,11,-1,-1,13,15,-1,17,19,-1,-1,21,23,25,27,29,31,-1,-1,-1,-1,-1,-1,-1,-1,-1,-1,-1,-1],"loss_changes":[2.9052615E2,9.507263E0,4.3688194E1,1.1941376E0,9.590692E0,1.0601315E1,0E0,0E0,2.260006E0,5.037879E0,0E0,2.1117958E1,3.1246967E0,0E0,0E0,4.1119576E-1,1.650871E-1,6.630164E0,1.5670065E1,6.8541117E0,2.5915527E0,0E0,0E0,0E0,0E0,0E0,0E0,0E0,0E0,0E0,0E0,0E0,0E0],"parents":[2147483647,0,0,1,1,2,2,3,3,4,4,5,5,8,8,9,9,11,11,12,12,15,15,16,16,17,17,18,18,19,19,20,20],"right_children":[2,4,6,8,10,12,-1,-1,14,16,-1,18,20,-1,-1,22,24,26,28,30,32,-1,-1,-1,-1,-1,-1,-1,-1,-1,-1,-1,-1],"split_conditions":[6E1,4.5454547E4,1.5493089E0,5.5E1,3.45E1,1.18E7,-1.093089E-1,1.0499407E-1,2.7272727E4,1.4285714E5,-1.06606185E-1,2.7741998E-1,5.390613E-2,8.462296E-2,-3.744137E-2,1.5E1,1.5493089E0,9.215732E6,3.324114E6,2.42E7,1.54E7,1.01392925E-1,6.1291125E-2,-1.5415519E-2,-6.2018283E-2,1.12198405E-1,-2.3982769E-2,-5.303942E-4,-1.2441677E-1,1.0854217E-1,-8.8526405E-2,-4.1066542E-2,-1.0943847E-1],"split_indices":[3,0,1,3,3,3,0,0,0,0,0,0,0,0,0,3,1,3,3,3,3,0,0,0,0,0,0,0,0,0,0,0,0],"split_type":[0,0,0,0,0,0,0,0,0,0,0,0,0,0,0,0,0,0,0,0,0,0,0,0,0,0,0,0,0,0,0,0,0],"sum_hessian":[4.2754617E2,1.8850446E2,2.3904172E2,1.5406032E2,3.4444126E1,1.00856094E2,1.3818562E2,1.493981E2,4.6622276E0,3.1507242E1,2.9368832E0,6.92984E1,3.1557695E1,2.9320323E0,1.7301953E0,2.7699562E1,3.8076797E0,1.990452E1,4.9393883E1,5.11261E0,2.6445086E1,7.1708455E0,2.0528717E1,2.647417E0,1.1602627E0,1.5755913E1,4.1486063E0,3.616252E1,1.3231363E1,2.2499158E0,2.8626943E0,1.1196926E1,1.5248159E1],"tree_param":{"num_deleted":"0","num_feature":"4","num_nodes":"33","size_leaf_vector":"1"}},{"base_weights":[6.7093974E-4,9.0887237E-1,-7.028841E-1,1.025203E0,4.248952E-1,-2.1049826E-1,-1.08202E-1,1.05050676E-1,5.138624E-1,5.98378E-1,-1.07231215E-1,-5.627314E-2,-8.247815E-1,9.314507E-2,-3.9628167E-2,7.388888E-1,-3.7595057E-1,1.0122298E0,-2.9035094E-1,-1.0679108E-1,1.5899098E-2,7.9480916E-2,2.6143545E-2,-1.4264683E-2,-6.0211238E-2,1.1081177E-1,3.6936991E-3,-9.475141E-3,-1.350666E-1],"categories":[],"categories_nodes":[],"categories_segments":[],"categories_sizes":[],"default_left":[0,0,0,0,0,0,0,0,0,0,0,0,0,0,0,0,0,0,0,0,0,0,0,0,0,0,0,0,0],"id":19,"left_children":[1,3,5,7,9,11,-1,-1,13,15,-1,17,19,-1,-1,21,23,25,27,-1,-1,-1,-1,-1,-1,-1,-1,-1,-1],"loss_changes":[2.5593094E2,9.408096E0,4.1905678E1,1.2748566E0,9.885561E0,9.373003E0,0E0,0E0,3.626509E0,4.732005E0,0E0,2.0439577E1,4.924692E0,0E0,0E0,5.6040287E-1,1.6545033E-1,1.3335476E0,1.3736317E1,0E0,0E0,0E0,0E0,0E0,0E0,0E0,0E0,0E0,0E0],"parents":[2147483647,0,0,1,1,2,2,3,3,4,4,5,5,8,8,9,9,11,11,12,12,15,15,16,16,17,17,18,18],"right_children":[2,4,6,8,10,12,-1,-1,14,16,-1,18,20,-1,-1,22,24,26,28,-1,-1,-1,-1,-1,-1,-1,-1,-1,-1],"split_conditions":[6E1,4.225352E4,8.555555E0,5.4E1,3.65E1,9.3789923E-1,-1.08202E-1,1.05050676E-1,2.7777777E4,1.4285714E5,-1.07231215E-1,2.7130565E6,1.6528926E4,9.314507E-2,-3.9628167E-2,1.1538462E5,1.5493089E0,6.789892E-1,4.0314066E-1,-1.0679108E-1,1.5899098E-2,7.9480916E-2,2.6143545E-2,-1.4264683E-2,-6.0211238E-2,1.1081177E-1,3.6936991E-3,-9.475141E-3,-1.350666E-1],"split_indices":[3,0,2,3,3,0,0,0,0,0,0,3,0,0,0,0,1,0,0,0,0,0,0,0,0,0,0,0,0],"split_type":[0,0,0,0,0,0,0,0,0,0,0,0,0,0,0,0,0,0,0,0,0,0,0,0,0,0,0,0,0],"sum_hessian":[3.985371E2,1.7383983E2,2.2469728E2,1.392507E2,3.4589127E1,9.842606E1,1.2627121E2,1.316801E2,7.570606E0,3.1535425E1,3.0537026E0,7.954636E1,1.887971E1,5.173509E0,2.3970973E0,2.7771988E1,3.7634358E0,1.3697335E1,6.584902E1,1.506983E1,3.80988E0,2.4265299E1,3.5066898E0,2.655159E0,1.108277E0,1.2347204E1,1.3501313E0,5.6513214E1,9.335805E0],"tree_param":{"num_deleted":"0","num_feature":"4","num_nodes":"29","size_leaf_vector":"1"}},{"base_weights":[3.530111E-4,8.915569E-1,-6.7757344E-1,1.0137235E0,4.0150213E-1,-1.9644305E-1,-1.0720159E-1,1.03404455E-1,3.3948418E-1,5.695395E-1,-1.0291224E-1,1.7330794E-2,-6.577229E-1,7.9973824E-2,-3.9316364E-2,7.094891E-1,-3.5745814E-1,7.9919505E-1,-3.1495342E-1,-4.0344068E-1,-1.09059714E-1,7.665911E-2,2.4463724E-2,-1.32021485E-2,-5.8478605E-2,1.0437127E-1,-1.6886575E-2,-1.085633E-2,-1.5628402E-1,1.7003775E-1,-7.7235095E-2],"categories":[],"categories_nodes":[],"categories_segments":[],"categories_sizes":[],"default_left":[0,0,0,0,0,0,0,0,0,0,0,0,0,0,0,0,0,0,0,0,0,0,0,0,0,0,0,0,0,0,0],"id":20,"left_children":[1,3,5,7,9,11,-1,-1,13,15,-1,17,19,-1,-1,21,23,25,27,29,-1,-1,-1,-1,-1,-1,-1,-1,-1,-1,-1],"loss_changes":[2.2552579E2,9.248077E0,4.002417E1,1.4086761E0,8.720512E0,9.550282E0,0E0,0E0,2.0835478E0,4.265497E0,0E0,1.7677822E1,2.9347181E0,0E0,0E0,5.345392E-1,1.6475016E-1,4.9783697E0,1.2138124E1,1.75348E1,0E0,0E0,0E0,0E0,0E0,0E0,0E0,0E0,0E0,0E0,0E0],"parents":[2147483647,0,0,1,1,2,2,3,3,4,4,5,5,8,8,9,9,11,11,12,12,15,15,16,16,17,17,18,18,19,19],"right_children":[2,4,6,8,10,12,-1,-1,14,16,-1,18,20,-1,-1,22,24,26,28,30,-1,-1,-1,-1,-1,-1,-1,-1,-1,-1,-1],"split_conditions":[6E1,4.225352E4,8.555555E0,5.5E1,3.65E1,1.18E7,-1.0720159E-1,1.03404455E-1,2.7272727E4,1.4285714E5,-1.0291224E-1,2.7741998E-1,7.6936826E-2,7.9973824E-2,-3.9316364E-2,1.1538462E5,1.5493089E0,9.215732E6,3.456E6,1.54E7,-1.09059714E-1,7.665911E-2,2.4463724E-2,-1.32021485E-2,-5.8478605E-2,1.0437127E-1,-1.6886575E-2,-1.085633E-2,-1.5628402E-1,1.7003775E-1,-7.7235095E-2],"split_indices":[3,0,2,3,3,3,0,0,0,0,0,0,0,0,0,0,1,3,3,3,0,0,0,0,0,0,0,0,0,0,0],"split_type":[0,0,0,0,0,0,0,0,0,0,0,0,0,0,0,0,0,0,0,0,0,0,0,0,0,0,0,0,0,0,0],"sum_hessian":[3.7128168E2,1.6027223E2,2.1100943E2,1.2743513E2,3.283711E1,9.573385E1,1.1527559E2,1.2318869E2,4.2464366E0,2.9924187E1,2.9129214E0,6.607481E1,2.965904E1,2.5518043E0,1.6946323E0,2.6202946E1,3.721242E0,1.9287111E1,4.6787697E1,1.990078E1,9.75826E0,2.2758232E1,3.444713E0,2.6620712E0,1.0591708E0,1.5335455E1,3.9516559E0,4.1080345E1,5.7073507E0,2.4305675E0,1.7470213E1],"tree_param":{"num_deleted":"0","num_feature":"4","num_nodes":"31","size_leaf_vector":"1"}},{"base_weights":[4.4578396E-6,8.741768E-1,-6.514063E-1,1.0025028E0,3.786473E-1,-1.8205099E-1,-1.0630786E-1,1.03245735E-1,4.5626423E-1,5.411272E-1,-9.897529E-2,-3.232497E-2,-7.927731E-1,9.013259E-2,-4.32177E-2,6.802286E-1,-3.4006852E-1,8.711398E-1,-2.92944E-1,-1.0475073E-1,1.5520008E-2,9.720098E-2,5.400948E-2,-1.22207E-2,-5.68158E-2,9.878566E-2,-1.7686522E-2,-1.2072968E-2,-1.255734E-1],"categories":[],"categories_nodes":[],"categories_segments":[],"categories_sizes":[],"default_left":[0,0,0,0,0,0,0,0,0,0,0,0,0,0,0,0,0,0,0,0,0,0,0,0,0,0,0,0,0],"id":21,"left_children":[1,3,5,7,9,11,-1,-1,13,15,-1,17,19,-1,-1,21,23,25,27,-1,-1,-1,-1,-1,-1,-1,-1,-1,-1],"loss_changes":[1.984635E2,9.083473E0,3.8393646E1,1.4530945E0,7.698856E0,8.617535E0,0E0,0E0,3.5154128E0,3.8405695E0,0E0,1.837472E1,4.646407E0,0E0,0E0,5.2847195E-1,1.6317827E-1,2.3129025E0,9.875259E0,0E0,0E0,0E0,0E0,0E0,0E0,0E0,0E0,0E0,0E0],"parents":[2147483647,0,0,1,1,2,2,3,3,4,4,5,5,8,8,9,9,11,11,12,12,15,15,16,16,17,17,18,18],"right_children":[2,4,6,8,10,12,-1,-1,14,16,-1,18,20,-1,-1,22,24,26,28,-1,-1,-1,-1,-1,-1,-1,-1,-1,-1],"split_conditions":[6E1,4.225352E4,1.5493089E0,5.4E1,3.65E1,9.3789923E-1,-1.0630786E-1,1.03245735E-1,2.7777777E4,1.4285714E5,-9.897529E-2,3.324114E6,1.6528926E4,9.013259E-2,-4.32177E-2,1.5E1,1.5493089E0,6.789892E-1,3.167205E-1,-1.0475073E-1,1.5520008E-2,9.720098E-2,5.400948E-2,-1.22207E-2,-5.68158E-2,9.878566E-2,-1.7686522E-2,-1.2072968E-2,-1.255734E-1],"split_indices":[3,0,1,3,3,0,0,0,0,0,0,3,0,0,0,3,1,0,0,0,0,0,0,0,0,0,0,0,0],"split_type":[0,0,0,0,0,0,0,0,0,0,0,0,0,0,0,0,0,0,0,0,0,0,0,0,0,0,0,0,0],"sum_hessian":[3.4652075E2,1.4781534E2,1.9870543E2,1.16597336E2,3.1218E1,9.352173E1,1.0518369E2,1.0969194E2,6.905394E0,2.8445068E1,2.7729318E0,7.595368E1,1.7568047E1,4.5910306E0,2.3143637E0,2.4764002E1,3.6810663E0,1.6480303E1,5.947338E1,1.3764366E1,3.8036811E0,6.108606E0,1.8655397E1,2.6682503E0,1.012816E0,1.4880455E1,1.5998491E0,5.1404118E1,8.069263E0],"tree_param":{"num_deleted":"0","num_feature":"4","num_nodes":"29","size_leaf_vector":"1"}},{"base_weights":[-3.1122196E-4,8.5651743E-1,-6.277363E-1,9.9129945E-1,3.572017E-1,-1.7056775E-1,-1.05482034E-1,1.0154223E-1,2.7638143E-1,5.1376396E-1,-9.535718E-2,3.7198693E-2,-6.204772E-1,7.556209E-2,-4.062166E-2,7.154556E-1,-1.0246809E-1,3.5417056E-1,-7.253932E-1,1.02238126E-1,-7.6616055E-1,9.677054E-2,4.6824764E-2,1.6814107E-2,-3.2371126E-2,1.06673695E-1,7.120377E-3,-9.5003955E-2,1.435182E-2,1.0786386E-1,-8.3057106E-2,-3.4037795E-2,-1.05377994E-1],"categories":[],"categories_nodes":[],"categories_segments":[],"categories_sizes":[],"default_left":[0,0,0,0,0,0,0,0,0,0,0,0,0,0,0,0,0,0,0,0,0,0,0,0,0,0,0,0,0,0,0,0,0],"id":22,"left_children":[1,3,5,7,9,11,-1,-1,13,15,-1,17,19,-1,-1,21,23,25,27,29,31,-1,-1,-1,-1,-1,-1,-1,-1,-1,-1,-1,-1],"loss_changes":[1.7486694E2,8.899567E0,3.648298E1,1.5769196E0,6.8085966E0,8.612222E0,0E0,0E0,1.906512E0,3.5726366E0,0E0,1.5679071E1,3.140543E0,0E0,0E0,8.7743187E-1,5.2246034E-1,9.146872E0,3.8570023E0,6.143407E0,2.6199675E0,0E0,0E0,0E0,0E0,0E0,0E0,0E0,0E0,0E0,0E0,0E0,0E0],"parents":[2147483647,0,0,1,1,2,2,3,3,4,4,5,5,8,8,9,9,11,11,12,12,15,15,16,16,17,17,18,18,19,19,20,20],"right_children":[2,4,6,8,10,12,-1,-1,14,16,-1,18,20,-1,-1,22,24,26,28,30,32,-1,-1,-1,-1,-1,-1,-1,-1,-1,-1,-1,-1],"split_conditions":[6E1,4.225352E4,1.5493089E0,5.5E1,3.65E1,1.18E7,-1.05482034E-1,1.0154223E-1,2.7272727E4,1.1538462E5,-9.535718E-2,6.789892E-1,5.390613E-2,7.556209E-2,-4.062166E-2,2E1,1.4285714E5,3.1345828E6,1.6528926E4,2.42E7,1.54E7,9.677054E-2,4.6824764E-2,1.6814107E-2,-3.2371126E-2,1.06673695E-1,7.120377E-3,-9.5003955E-2,1.435182E-2,1.0786386E-1,-8.3057106E-2,-3.4037795E-2,-1.05377994E-1],"split_indices":[3,0,1,3,3,3,0,0,0,0,0,0,0,0,0,3,0,3,0,3,3,0,0,0,0,0,0,0,0,0,0,0,0],"split_type":[0,0,0,0,0,0,0,0,0,0,0,0,0,0,0,0,0,0,0,0,0,0,0,0,0,0,0,0,0,0,0,0,0],"sum_hessian":[3.232758E2,1.3650108E2,1.8677472E2,1.06710915E2,2.9790165E1,9.088597E1,9.588875E1,1.0282119E2,3.8897278E0,2.7154772E1,2.6353922E0,6.2801704E1,2.8084265E1,2.222426E0,1.667302E0,2.033737E1,6.817403E0,4.474075E1,1.8060955E1,4.7614713E0,2.3322794E1,8.623478E0,1.1713892E1,3.174542E0,3.642861E0,1.1929664E1,3.281109E1,1.4276559E1,3.7843957E0,2.2499964E0,2.5114748E0,1.0283242E1,1.3039552E1],"tree_param":{"num_deleted":"0","num_feature":"4","num_nodes":"33","size_leaf_vector":"1"}},{"base_weights":[-3.852215E-4,8.503469E-1,-5.9940624E-1,9.9256086E-1,3.2077104E-1,-1.555314E-1,-1.0473428E-1,1.00987926E-1,5.130714E-1,4.603861E-1,-8.751171E-2,3.4392614E-2,-5.898359E-1,7.7627115E-2,8.74004E-4,6.6362464E-1,-9.478159E-2,7.5305605E-1,-2.7922916E-1,-3.2126975E-1,-1.0522435E-1,9.5252715E-2,3.69134E-2,6.84724E-3,-4.498077E-2,9.895855E-2,-1.5150735E-2,-8.530783E-3,-1.4181407E-1,1.5925467E-1,-7.062096E-2],"categories":[],"categories_nodes":[],"categories_segments":[],"categories_sizes":[],"default_left":[0,0,0,0,0,0,0,0,0,0,0,0,0,0,0,0,0,0,0,0,0,0,0,0,0,0,0,0,0,0,0],"id":23,"left_children":[1,3,5,7,9,11,-1,-1,13,15,-1,17,19,-1,-1,21,23,25,27,29,-1,-1,-1,-1,-1,-1,-1,-1,-1,-1,-1],"loss_changes":[1.5450095E2,9.116043E0,3.521005E1,2.9792786E-1,5.07726E0,7.487908E0,0E0,0E0,7.177732E-1,2.9654636E0,0E0,1.462005E1,3.0895329E0,0E0,0E0,1.2611494E0,4.8107347E-1,4.36362E0,9.870441E0,1.5047756E1,0E0,0E0,0E0,0E0,0E0,0E0,0E0,0E0,0E0,0E0,0E0],"parents":[2147483647,0,0,1,1,2,2,3,3,4,4,5,5,8,8,9,9,11,11,12,12,15,15,16,16,17,17,18,18,19,19],"right_children":[2,4,6,8,10,12,-1,-1,14,16,-1,18,20,-1,-1,22,24,26,28,30,-1,-1,-1,-1,-1,-1,-1,-1,-1,-1,-1],"split_conditions":[5.6E1,4.5454547E4,8.555555E0,5.4E1,3.45E1,1.18E7,-1.0473428E-1,1.00987926E-1,2.7777777E4,1.1538462E5,-8.751171E-2,2.7741998E-1,7.6936826E-2,7.7627115E-2,8.74004E-4,2E1,1.3E1,9.215732E6,3.456E6,1.54E7,-1.0522435E-1,9.5252715E-2,3.69134E-2,6.84724E-3,-4.498077E-2,9.895855E-2,-1.5150735E-2,-8.530783E-3,-1.4181407E-1,1.5925467E-1,-7.062096E-2],"split_indices":[3,0,2,3,3,3,0,0,0,0,0,0,0,0,0,3,3,3,3,3,0,0,0,0,0,0,0,0,0,0,0],"split_type":[0,0,0,0,0,0,0,0,0,0,0,0,0,0,0,0,0,0,0,0,0,0,0,0,0,0,0,0,0,0,0],"sum_hessian":[3.0117682E2,1.2426937E2,1.7690744E2,9.72731E1,2.699627E1,8.953325E1,8.737419E1,9.281462E1,4.458479E0,2.472478E1,2.2714913E0,6.2933052E1,2.6600199E1,2.5752845E0,1.8831944E0,1.7956E1,6.7687798E0,1.8694197E1,4.4238857E1,1.7899153E1,8.701046E0,7.936049E0,1.0019949E1,5.1895633E0,1.5792167E0,1.4744692E1,3.9495044E0,3.8720806E1,5.518051E0,2.4719844E0,1.5427169E1],"tree_param":{"num_deleted":"0","num_feature":"4","num_nodes":"31","size_leaf_vector":"1"}},{"base_weights":[-3.8357498E-4,8.318126E-1,-5.748907E-1,9.8767656E-1,3.158057E-1,-1.4435197E-1,-1.0404384E-1,1.0070246E-1,4.925113E-1,4.6224156E-1,-8.999907E-2,3.306565E-2,-5.6274027E-1,7.5750224E-2,8.1736187E-4,6.629573E-1,-8.953161E-2,4.7608215E-1,-4.4099915E-1,1.5848903E-1,-7.177993E-1,9.3760245E-2,4.150721E-2,1.6994728E-2,-3.0424872E-2,1.05923E-1,2.1881586E-2,-1.7753521E-2,-1.2346583E-1,1.0530766E-1,-7.871428E-2,-2.9469503E-2,-1.0223979E-1],"categories":[],"categories_nodes":[],"categories_segments":[],"categories_sizes":[],"default_left":[0,0,0,0,0,0,0,0,0,0,0,0,0,0,0,0,0,0,0,0,0,0,0,0,0,0,0,0,0,0,0,0,0],"id":24,"left_children":[1,3,5,7,9,11,-1,-1,13,15,-1,17,19,-1,-1,21,23,25,27,29,31,-1,-1,-1,-1,-1,-1,-1,-1,-1,-1,-1,-1],"loss_changes":[1.3582118E2,9.019363E0,3.353547E1,3.5320282E-1,5.469639E0,6.5860496E0,0E0,0E0,6.7280006E-1,2.9382596E0,0E0,1.3456568E1,3.066307E0,0E0,0E0,9.166088E-1,4.871011E-1,4.7318287E0,6.260456E0,5.473906E0,2.522461E0,0E0,0E0,0E0,0E0,0E0,0E0,0E0,0E0,0E0,0E0,0E0,0E0],"parents":[2147483647,0,0,1,1,2,2,3,3,4,4,5,5,8,8,9,9,11,11,12,12,15,15,16,16,17,17,18,18,19,19,20,20],"right_children":[2,4,6,8,10,12,-1,-1,14,16,-1,18,20,-1,-1,22,24,26,28,30,32,-1,-1,-1,-1,-1,-1,-1,-1,-1,-1,-1,-1],"split_conditions":[5.6E1,4.225352E4,1.5493089E0,5.4E1,3.65E1,1.18E7,-1.0404384E-1,1.0070246E-1,2.7777777E4,1.1538462E5,-8.999907E-2,5.787025E-1,5.390613E-2,7.5750224E-2,8.1736187E-4,2E1,1.4285714E5,3.456E6,1.8455526E6,2.42E7,1.54E7,9.3760245E-2,4.150721E-2,1.6994728E-2,-3.0424872E-2,1.05923E-1,2.1881586E-2,-1.7753521E-2,-1.2346583E-1,1.0530766E-1,-7.871428E-2,-2.9469503E-2,-1.0223979E-1],"split_indices":[3,0,1,3,3,3,0,0,0,0,0,0,0,0,0,3,0,3,3,3,3,0,0,0,0,0,0,0,0,0,0,0,0],"split_type":[0,0,0,0,0,0,0,0,0,0,0,0,0,0,0,0,0,0,0,0,0,0,0,0,0,0,0,0,0,0,0,0,0],"sum_hessian":[2.8208353E2,1.15021904E2,1.6706163E2,8.763652E1,2.7385382E1,8.7474884E1,7.958674E1,8.334616E1,4.2903605E0,2.4994713E1,2.39067E0,6.2073555E1,2.5401333E1,2.4085815E0,1.8817792E0,1.8179972E1,6.8147407E0,3.2085346E1,2.9988209E1,4.490846E0,2.0910486E1,7.3045125E0,1.0875459E1,3.1801434E0,3.6345973E0,8.86767E0,2.3217674E1,2.3433043E1,6.5551667E0,2.2493203E0,2.2415261E0,9.576158E0,1.1334329E1],"tree_param":{"num_deleted":"0","num_feature":"4","num_nodes":"33","size_leaf_vector":"1"}},{"base_weights":[-4.4943637E-4,-5.786103E-1,7.778161E-1,-1.5648007E-1,-1.0339528E-1,8.2195956E-1,-8.619281E-2,6.121993E-4,-1.0109102E-1,9.451683E-1,3.7926018E-1,9.483901E-1,-1.9690697E-1,1.0117332E0,2.11209E-1,5.233675E-1,-8.5729286E-2,1.0418816E-1,1.41432015E-2,-2.0793432E-3,-1.18553236E-1,1.0232687E-1,4.60022E-2,4.328046E-2,-4.591525E-2,6.721755E-2,5.7220357E-3],"categories":[],"categories_nodes":[],"categories_segments":[],"categories_sizes":[],"default_left":[0,0,0,0,0,0,0,0,0,0,0,0,0,0,0,0,0,0,0,0,0,0,0,0,0,0,0],"id":25,"left_children":[1,3,5,7,-1,9,-1,11,-1,13,15,17,19,21,23,25,-1,-1,-1,-1,-1,-1,-1,-1,-1,-1,-1],"loss_changes":[1.1967649E2,2.9170582E1,8.914406E0,1.0787931E1,0E0,5.6908875E0,0E0,1.3082467E1,0E0,3.9923172E0,5.0491104E0,7.618952E-1,1.0044806E1,2.9937744E-2,1.4498585E0,1.6085005E0,0E0,0E0,0E0,0E0,0E0,0E0,0E0,0E0,0E0,0E0,0E0],"parents":[2147483647,0,0,1,1,2,2,3,3,5,5,7,7,9,9,10,10,11,11,12,12,13,13,14,14,15,15],"right_children":[2,4,6,8,-1,10,-1,12,-1,14,16,18,20,22,24,26,-1,-1,-1,-1,-1,-1,-1,-1,-1,-1,-1],"split_conditions":[1.6528926E4,8.555555E0,1.5493089E0,9.3789923E-1,-1.0339528E-1,4.225352E4,-8.619281E-2,2.7130565E6,-1.0109102E-1,5.5E1,3.65E1,6.789892E-1,4.0314066E-1,5.4E1,2.7272727E4,1.1538462E5,-8.5729286E-2,1.0418816E-1,1.41432015E-2,-2.0793432E-3,-1.18553236E-1,1.0232687E-1,4.60022E-2,4.328046E-2,-4.591525E-2,6.721755E-2,5.7220357E-3],"split_indices":[0,2,1,0,0,0,0,3,0,3,3,0,0,3,0,0,0,0,0,0,0,0,0,0,0,0,0],"split_type":[0,0,0,0,0,0,0,0,0,0,0,0,0,0,0,0,0,0,0,0,0,0,0,0,0,0,0],"sum_hessian":[2.6396964E2,1.5160286E2,1.1236677E2,7.936777E1,7.22351E1,1.099067E2,2.4600632E0,6.788582E1,1.1481947E1,8.5090065E1,2.4816635E1,1.105205E1,5.683377E1,7.76677E1,7.422366E0,2.2742937E1,2.0736995E0,9.643647E0,1.408403E0,4.9106907E1,7.726863E0,7.523983E1,2.4278708E0,5.844704E0,1.577662E0,1.690453E1,5.838407E0],"tree_param":{"num_deleted":"0","num_feature":"4","num_nodes":"27","size_leaf_vector":"1"}},{"base_weights":[-1.0517222E-3,7.983284E-1,-5.311216E-1,9.7000164E-1,2.79317E-1,-1.280864E-1,-1.0279613E-1,9.926577E-2,4.6466547E-1,4.1519994E-1,-8.423297E-2,6.642931E-2,-4.9282378E-1,7.401427E-2,-1.8402686E-3,6.109167E-1,-7.79173E-2,1.0341692E-1,-2.2228819E-1,-2.6932755E-1,-1.1197299E-1,9.121559E-2,3.5255767E-2,8.639059E-3,-4.3182984E-2,-5.093533E-3,-1.5871088E-1,5.0281134E-2,-6.6969745E-2],"categories":[],"categories_nodes":[],"categories_segments":[],"categories_sizes":[],"default_left":[0,0,0,0,0,0,0,0,0,0,0,0,0,0,0,0,0,0,0,0,0,0,0,0,0,0,0,0,0],"id":26,"left_children":[1,3,5,7,9,11,-1,-1,13,15,-1,17,19,-1,-1,21,23,-1,25,27,-1,-1,-1,-1,-1,-1,-1,-1,-1],"loss_changes":[1.0554115E2,8.577744E0,2.9858051E1,3.8850403E-1,4.3259907E0,5.9803276E0,0E0,0E0,6.8763304E-1,2.358038E0,0E0,1.57521E1,3.8003798E0,0E0,0E0,1.0210032E0,4.8441282E-1,0E0,1.0118557E1,7.4157305E0,0E0,0E0,0E0,0E0,0E0,0E0,0E0,0E0,0E0],"parents":[2147483647,0,0,1,1,2,2,3,3,4,4,5,5,8,8,9,9,11,11,12,12,15,15,16,16,18,18,19,19],"right_children":[2,4,6,8,10,12,-1,-1,14,16,-1,18,20,-1,-1,22,24,-1,26,28,-1,-1,-1,-1,-1,-1,-1,-1,-1],"split_conditions":[5.6E1,4.225352E4,1.5493089E0,5.4E1,3.65E1,9.215732E6,-1.0279613E-1,9.926577E-2,2.7777777E4,1.1538462E5,-8.423297E-2,2.530493E-1,1.0515315E-1,7.401427E-2,-1.8402686E-3,2E1,1.3E1,1.0341692E-1,4.11991E6,1.54E7,-1.1197299E-1,9.121559E-2,3.5255767E-2,8.639059E-3,-4.3182984E-2,-5.093533E-3,-1.5871088E-1,5.0281134E-2,-6.6969745E-2],"split_indices":[3,0,1,3,3,3,0,0,0,0,0,0,0,0,0,3,3,0,3,3,0,0,0,0,0,0,0,0,0],"split_type":[0,0,0,0,0,0,0,0,0,0,0,0,0,0,0,0,0,0,0,0,0,0,0,0,0,0,0,0,0],"sum_hessian":[2.4707733E2,9.831133E1,1.48766E2,7.322258E1,2.5088749E1,8.283127E1,6.593474E1,6.9157646E1,4.0649357E0,2.2939547E1,2.149203E0,5.455485E1,2.827642E1,2.2497885E0,1.8151473E0,1.6250774E1,6.6887712E0,1.1942697E1,4.2612156E1,2.1898922E1,6.377498E0,6.3344326E0,9.916343E0,5.0842495E0,1.6045218E0,3.8780582E1,3.8315713E0,7.390331E0,1.4508591E1],"tree_param":{"num_deleted":"0","num_feature":"4","num_nodes":"29","size_leaf_vector":"1"}},{"base_weights":[-1.4757885E-3,7.7888364E-1,-5.077848E-1,9.5318365E-1,2.4343996E-1,-1.1996517E-1,-1.0223322E-1,9.9775404E-1,5.674234E-1,3.6044216E-1,-7.6433696E-2,1.2739744E-2,-6.245089E-1,5.8539906E-3,1.0133363E-1,8.636539E-2,-8.092518E-2,4.4613642E-1,-6.237958E-2,9.244745E-1,-1.7324507E-1,-9.945335E-2,1.1237673E-1,7.272349E-2,2.144976E-2,1.0221382E-1,1.36301415E-2,-7.072696E-4,-1.1376824E-1,2.7707195E-2,-1.6447801E-2],"categories":[],"categories_nodes":[],"categories_segments":[],"categories_sizes":[],"default_left":[0,0,0,0,0,0,0,0,0,0,0,0,0,0,0,0,0,0,0,0,0,0,0,0,0,0,0,0,0,0,0],"id":27,"left_children":[1,3,5,7,9,11,-1,13,15,17,-1,19,21,-1,-1,-1,-1,23,-1,25,27,-1,29,-1,-1,-1,-1,-1,-1,-1,-1],"loss_changes":[9.264489E1,8.379379E0,2.8255821E1,6.2480545E-1,3.1057403E0,5.513337E0,0E0,8.301239E-1,4.5702014E0,2.1495166E0,0E0,1.1365538E1,4.786069E0,0E0,0E0,0E0,0E0,1.2108545E0,0E0,7.346592E-1,8.923027E0,0E0,3.4783873E-1,0E0,0E0,0E0,0E0,0E0,0E0,0E0,0E0],"parents":[2147483647,0,0,1,1,2,2,3,3,4,4,5,5,7,7,8,8,9,9,11,11,12,12,17,17,19,19,20,20,22,22],"right_children":[2,4,6,8,10,12,-1,14,16,18,-1,20,22,-1,-1,-1,-1,24,-1,26,28,-1,30,-1,-1,-1,-1,-1,-1,-1,-1],"split_conditions":[5.6E1,4.5454547E4,8.555555E0,4.7E1,3.45E1,9.3789923E-1,-1.0223322E-1,3.296703E4,3.0927836E4,1.5493089E0,-7.6433696E-2,2.7130565E6,1.6528926E4,5.8539906E-3,1.0133363E-1,8.636539E-2,-8.092518E-2,7.692308E4,-6.237958E-2,6.789892E-1,4.0314066E-1,-9.945335E-2,2.5423729E4,7.272349E-2,2.144976E-2,1.0221382E-1,1.36301415E-2,-7.072696E-4,-1.1376824E-1,2.7707195E-2,-1.6447801E-2],"split_indices":[3,0,2,3,3,0,0,0,0,1,0,3,0,0,0,0,0,0,0,0,0,0,0,0,0,0,0,0,0,0,0],"split_type":[0,0,0,0,0,0,0,0,0,0,0,0,0,0,0,0,0,0,0,0,0,0,0,0,0,0,0,0,0,0,0],"sum_hessian":[2.3248187E2,9.127067E1,1.412112E2,6.826769E1,2.3002975E1,8.122456E1,5.9986637E1,5.977489E1,8.4928E0,2.1185673E1,1.8173025E0,6.508158E1,1.6142986E1,1.0531594E0,5.8721733E1,7.2955985E0,1.1972013E0,1.9991776E1,1.193897E0,1.0353916E1,5.4727665E1,1.0513848E1,5.629137E0,8.065094E0,1.19266815E1,8.9482765E0,1.4056404E0,4.7543297E1,7.184368E0,3.5290139E0,2.1001232E0],"tree_param":{"num_deleted":"0","num_feature":"4","num_nodes":"31","size_leaf_vector":"1"}},{"base_weights":[-1.962622E-3,3.6033738E-1,-1.0245112E-1,8.098884E-1,-1.1215118E-1,9.8032725E-1,3.1950027E-1,7.7831395E-2,-4.6406344E-1,1.0095818E-1,4.0732813E-1,4.479305E-1,-7.768921E-2,9.0110356E-1,-2.2202246E-1,-2.4931093E-1,-1.08773686E-1,7.004685E-2,-6.2485114E-3,7.372975E-2,1.9750109E-2,1.14928894E-1,5.3204715E-2,-3.6777374E-3,-1.2388837E-1,4.56057E-2,-6.34366E-2],"categories":[],"categories_nodes":[],"categories_segments":[],"categories_sizes":[],"default_left":[0,0,0,0,0,0,0,0,0,0,0,0,0,0,0,0,0,0,0,0,0,0,0,0,0,0,0],"id":28,"left_children":[1,3,-1,5,7,9,11,13,15,-1,17,19,-1,21,23,25,-1,-1,-1,-1,-1,-1,-1,-1,-1,-1,-1],"loss_changes":[8.164379E1,3.4655598E1,0E0,6.6666336E0,5.3993E0,6.1948013E-1,3.589741E0,1.3271641E1,3.5148172E0,0E0,6.8597907E-1,1.3937373E0,0E0,7.01499E-1,7.4169292E0,6.352732E0,0E0,0E0,0E0,0E0,0E0,0E0,0E0,0E0,0E0,0E0,0E0],"parents":[2147483647,0,0,1,1,3,3,4,4,5,5,6,6,7,7,8,8,10,10,11,11,13,13,14,14,15,15],"right_children":[2,4,-1,6,8,10,12,14,16,-1,18,20,-1,22,24,26,-1,-1,-1,-1,-1,-1,-1,-1,-1,-1,-1],"split_conditions":[1.5493089E0,5.6E1,-1.0245112E-1,4.225352E4,9.215732E6,5.4E1,3.65E1,2.7741998E-1,1.0515315E-1,1.0095818E-1,2.7777777E4,7.692308E4,-7.768921E-2,5.4671215E6,3.456E6,1.54E7,-1.08773686E-1,7.004685E-2,-6.2485114E-3,7.372975E-2,1.9750109E-2,1.14928894E-1,5.3204715E-2,-3.6777374E-3,-1.2388837E-1,4.56057E-2,-6.34366E-2],"split_indices":[1,3,0,0,3,3,3,0,0,0,0,0,0,3,3,3,0,0,0,0,0,0,0,0,0,0,0],"split_type":[0,0,0,0,0,0,0,0,0,0,0,0,0,0,0,0,0,0,0,0,0,0,0,0,0,0,0],"sum_hessian":[2.1838286E2,1.6172836E2,5.6654495E1,8.25099E1,7.921846E1,6.048776E1,2.2022148E1,5.195109E1,2.726737E1,5.682464E1,3.6631174E0,2.0242422E1,1.7797258E0,1.3334644E1,3.8616447E1,2.1324387E1,5.9429836E0,1.9533638E0,1.7097538E0,8.489182E0,1.1753241E1,6.708884E0,6.6257606E0,3.354213E1,5.074317E0,7.4650483E0,1.3859338E1],"tree_param":{"num_deleted":"0","num_feature":"4","num_nodes":"27","size_leaf_vector":"1"}},{"base_weights":[-1.9259268E-3,3.428993E-1,-1.0190069E-1,7.922936E-1,-1.0430984E-1,9.733018E-1,2.992622E-1,2.3920862E-2,-5.968971E-1,1.0052526E-1,3.9031473E-1,4.2243624E-1,-7.526854E-2,7.730204E-1,-1.8346794E-1,-9.789268E-2,1.0604947E-1,6.829441E-2,-5.833155E-3,7.140769E-2,1.816741E-2,8.867937E-2,-4.589564E-3,-3.859292E-3,-1.06801055E-1,2.601157E-2,-1.4929979E-2],"categories":[],"categories_nodes":[],"categories_segments":[],"categories_sizes":[],"default_left":[0,0,0,0,0,0,0,0,0,0,0,0,0,0,0,0,0,0,0,0,0,0,0,0,0,0,0],"id":29,"left_children":[1,3,-1,5,7,9,11,13,15,-1,17,19,-1,21,23,-1,25,-1,-1,-1,-1,-1,-1,-1,-1,-1,-1],"loss_changes":[7.278219E1,3.1230549E1,0E0,6.6179123E0,4.9768343E0,6.541939E-1,3.198955E0,9.97562E0,4.472061E0,0E0,6.3771737E-1,1.3128242E0,0E0,1.3373098E0,6.4151983E0,0E0,2.9965425E-1,0E0,0E0,0E0,0E0,0E0,0E0,0E0,0E0,0E0,0E0],"parents":[2147483647,0,0,1,1,3,3,4,4,5,5,6,6,7,7,8,8,10,10,11,11,13,13,14,14,16,16],"right_children":[2,4,-1,6,8,10,12,14,16,-1,18,20,-1,22,24,-1,26,-1,-1,-1,-1,-1,-1,-1,-1,-1,-1],"split_conditions":[8.555555E0,5.6E1,-1.0190069E-1,4.225352E4,9.3789923E-1,5.4E1,3.65E1,3.324114E6,1.6528926E4,1.0052526E-1,2.7777777E4,7.692308E4,-7.526854E-2,6.789892E-1,3.167205E-1,-9.789268E-2,2.5423729E4,6.829441E-2,-5.833155E-3,7.140769E-2,1.816741E-2,8.867937E-2,-4.589564E-3,-3.859292E-3,-1.06801055E-1,2.601157E-2,-1.4929979E-2],"split_indices":[2,3,0,0,0,3,3,3,0,0,0,0,0,0,0,0,0,0,0,0,0,0,0,0,0,0,0],"split_type":[0,0,0,0,0,0,0,0,0,0,0,0,0,0,0,0,0,0,0,0,0,0,0,0,0,0,0],"sum_hessian":[2.0552878E2,1.5398534E2,5.1543438E1,7.642014E1,7.756519E1,5.5185566E1,2.1234577E1,6.2298927E1,1.5266267E1,5.1631577E1,3.5539904E0,1.9544506E1,1.6900698E0,1.2916486E1,4.9382442E1,9.636516E0,5.629751E0,1.834927E0,1.7190635E0,7.9493623E0,1.1595144E1,1.1268103E1,1.6483833E0,4.332936E1,6.0530796E0,3.4995902E0,2.130161E0],"tree_param":{"num_deleted":"0","num_feature":"4","num_nodes":"27","size_leaf_vector":"1"}},{"base_weights":[-2.086248E-3,3.2631272E-1,-1.0137149E-1,7.741706E-1,-9.7813584E-2,9.661512E-1,2.797918E-1,6.66837E-2,-4.7714937E-1,1.00101866E-1,3.7409666E-1,3.978375E-1,-7.296293E-2,4.403347E-1,-3.6187068E-1,-1.7484792E-1,-1.0082009E-1,6.657455E-2,-5.4459022E-3,6.907609E-2,1.6696345E-2,7.484548E-2,9.450659E-5,-1.1975012E-2,-1.117171E-1,1.4239316E-1,-5.7445165E-2],"categories":[],"categories_nodes":[],"categories_segments":[],"categories_sizes":[],"default_left":[0,0,0,0,0,0,0,0,0,0,0,0,0,0,0,0,0,0,0,0,0,0,0,0,0,0,0],"id":30,"left_children":[1,3,-1,5,7,9,11,13,15,-1,17,19,-1,21,23,25,-1,-1,-1,-1,-1,-1,-1,-1,-1,-1,-1],"loss_changes":[6.492515E1,2.8100815E1,0E0,6.5513916E0,4.8157434E0,6.858406E-1,2.8535533E0,8.862962E0,3.5662227E0,0E0,5.928743E-1,1.2309134E0,0E0,3.991498E0,4.596371E0,1.10818815E1,0E0,0E0,0E0,0E0,0E0,0E0,0E0,0E0,0E0,0E0,0E0],"parents":[2147483647,0,0,1,1,3,3,4,4,5,5,6,6,7,7,8,8,10,10,11,11,13,13,14,14,15,15],"right_children":[2,4,-1,6,8,10,12,14,16,-1,18,20,-1,22,24,26,-1,-1,-1,-1,-1,-1,-1,-1,-1,-1,-1],"split_conditions":[1.5493089E0,5.6E1,-1.0137149E-1,4.225352E4,1.18E7,5.4E1,3.65E1,5.787025E-1,7.6936826E-2,1.00101866E-1,2.7777777E4,7.692308E4,-7.296293E-2,5.4671215E6,1.8455526E6,1.54E7,-1.0082009E-1,6.657455E-2,-5.4459022E-3,6.907609E-2,1.6696345E-2,7.484548E-2,9.450659E-5,-1.1975012E-2,-1.117171E-1,1.4239316E-1,-5.7445165E-2],"split_indices":[1,3,0,0,3,3,3,0,0,0,0,0,0,3,3,3,0,0,0,0,0,0,0,0,0,0,0],"split_type":[0,0,0,0,0,0,0,0,0,0,0,0,0,0,0,0,0,0,0,0,0,0,0,0,0,0,0],"sum_hessian":[1.9343376E2,1.465406E2,4.689316E1,7.087477E1,7.566583E1,5.0363136E1,2.0511635E1,5.3353523E1,2.231231E1,4.690975E1,3.4533844E0,1.890651E1,1.6051264E0,2.8487848E1,2.4865675E1,1.5065508E1,7.246802E0,1.7255901E0,1.7277944E0,7.455431E0,1.1451078E1,1.633183E1,1.2156019E1,1.9706928E1,5.1587462E0,2.4999735E0,1.2565535E1],"tree_param":{"num_deleted":"0","num_feature":"4","num_nodes":"27","size_leaf_vector":"1"}},{"base_weights":[-2.0579267E-3,3.1047738E-1,-1.0084796E-1,7.64509E-1,-8.49174E-2,9.775447E-1,2.611057E-1,8.5481316E-2,-4.112551E-1,9.968386E-2,3.825253E-2,3.7416732E-1,-7.0761405E-2,9.362426E-2,-1.6538958E-1,-2.0293449E-1,-1.0489606E-1,5.3241264E-2,-6.928308E-4,-4.7467078E-5,-1.4181362E-1,4.1707516E-2,-5.652765E-2],"categories":[],"categories_nodes":[],"categories_segments":[],"categories_sizes":[],"default_left":[0,0,0,0,0,0,0,0,0,0,0,0,0,0,0,0,0,0,0,0,0,0,0],"id":31,"left_children":[1,3,-1,5,7,9,11,13,15,-1,-1,17,-1,-1,19,21,-1,-1,-1,-1,-1,-1,-1],"loss_changes":[5.7935944E1,2.5296875E1,0E0,6.7717705E0,4.262812E0,1.4305496E-1,2.5481796E0,1.099175E1,3.2746372E0,0E0,0E0,1.1690228E0,0E0,0E0,8.275961E0,4.959761E0,0E0,0E0,0E0,0E0,0E0,0E0,0E0],"parents":[2147483647,0,0,1,1,3,3,4,4,5,5,6,6,7,7,8,8,11,11,14,14,15,15],"right_children":[2,4,-1,6,8,10,12,14,16,-1,-1,18,-1,-1,20,22,-1,-1,-1,-1,-1,-1,-1],"split_conditions":[1.5493089E0,5.5E1,-1.0084796E-1,4.225352E4,9.215732E6,5.4E1,3.65E1,2.530493E-1,1.0515315E-1,9.968386E-2,3.825253E-2,1.1538462E5,-7.0761405E-2,9.362426E-2,4.11991E6,1.54E7,-1.0489606E-1,5.3241264E-2,-6.928308E-4,-4.7467078E-5,-1.4181362E-1,4.1707516E-2,-5.652765E-2],"split_indices":[1,3,0,0,3,3,3,0,0,0,0,0,0,0,3,3,0,0,0,0,0,0,0],"split_type":[0,0,0,0,0,0,0,0,0,0,0,0,0,0,0,0,0,0,0,0,0,0,0],"sum_hessian":[1.8219579E2,1.3955098E2,4.264481E1,6.452426E1,7.502671E1,4.467594E1,1.984832E1,4.9774693E1,2.5252022E1,4.2618702E1,2.0572379E0,1.8323492E1,1.5248287E0,1.0712878E1,3.9061813E1,2.0027742E1,5.2242794E0,1.2666729E1,5.656763E0,3.5401806E1,3.6600096E0,7.3315487E0,1.2696194E1],"tree_param":{"num_deleted":"0","num_feature":"4","num_nodes":"23","size_leaf_vector":"1"}},{"base_weights":[-2.821387E-3,2.931886E-1,-1.0033828E-1,7.4595326E-1,-8.02586E-2,9.7154886E-1,2.4259783E-1,3.919292E-2,-4.9596703E-1,9.926725E-2,3.6553454E-2,3.5116023E-1,-6.865485E-2,8.8401216E-1,-1.3010176E-1,-9.6247084E-2,1.391004E-1,6.4875126E-2,1.32605275E-2,9.84505E-2,1.606378E-2,1.759313E-3,-1.05188206E-1,3.8442515E-2,-6.1012235E-2],"categories":[],"categories_nodes":[],"categories_segments":[],"categories_sizes":[],"default_left":[0,0,0,0,0,0,0,0,0,0,0,0,0,0,0,0,0,0,0,0,0,0,0,0,0],"id":32,"left_children":[1,3,-1,5,7,9,11,13,15,-1,-1,17,-1,19,21,-1,23,-1,-1,-1,-1,-1,-1,-1,-1],"loss_changes":[5.1611664E1,2.279883E1,0E0,6.677929E0,3.7238457E0,1.7106247E-1,2.276152E0,8.535576E0,5.0886917E0,0E0,0E0,1.1319101E0,0E0,5.6565475E-1,6.81453E0,0E0,1.6969478E0,0E0,0E0,0E0,0E0,0E0,0E0,0E0,0E0],"parents":[2147483647,0,0,1,1,3,3,4,4,5,5,6,6,7,7,8,8,11,11,13,13,14,14,16,16],"right_children":[2,4,-1,6,8,10,12,14,16,-1,-1,18,-1,20,22,-1,24,-1,-1,-1,-1,-1,-1,-1,-1],"split_conditions":[8.555555E0,5.5E1,-1.0033828E-1,4.225352E4,9.3789923E-1,5.4E1,3.65E1,2.7130565E6,1.6528926E4,9.926725E-2,3.6553454E-2,7.692308E4,-6.865485E-2,6.789892E-1,4.0314066E-1,-9.6247084E-2,2.7272727E4,6.4875126E-2,1.32605275E-2,9.84505E-2,1.606378E-2,1.759313E-3,-1.05188206E-1,3.8442515E-2,-6.1012235E-2],"split_indices":[2,3,0,0,0,3,3,3,0,0,0,0,0,0,0,0,0,0,0,0,0,0,0,0,0],"split_type":[0,0,0,0,0,0,0,0,0,0,0,0,0,0,0,0,0,0,0,0,0,0,0,0,0],"sum_hessian":[1.7226677E2,1.3348347E2,3.87833E1,5.9883583E1,7.359989E1,4.0708538E1,1.9175043E1,5.787543E1,1.5724463E1,3.8720825E1,1.9877123E0,1.7725983E1,1.4490604E0,8.956868E0,4.8918564E1,8.768105E0,6.956359E0,6.672347E0,1.1053637E1,7.5473795E0,1.4094884E0,4.3008343E1,5.910221E0,5.6072335E0,1.3491254E0],"tree_param":{"num_deleted":"0","num_feature":"4","num_nodes":"25","size_leaf_vector":"1"}},{"base_weights":[-3.1366064E-3,2.7756843E-1,-9.98315E-2,7.1733946E-1,-8.3286256E-2,9.437341E-1,2.2556596E-1,3.624406E-2,-5.5079883E-1,9.8848216E-2,3.4290153E-1,3.294614E-1,-6.663569E-2,3.985772E-1,-3.5907993E-1,-9.4809815E-2,8.158447E-2,6.50833E-2,-9.357799E-3,6.253217E-2,1.2151408E-2,9.21249E-2,1.6118761E-2,-1.2747918E-2,-1.1724196E-1,2.2300912E-2,-1.4470197E-2],"categories":[],"categories_nodes":[],"categories_segments":[],"categories_sizes":[],"default_left":[0,0,0,0,0,0,0,0,0,0,0,0,0,0,0,0,0,0,0,0,0,0,0,0,0,0,0],"id":33,"left_children":[1,3,-1,5,7,9,11,13,15,-1,17,19,-1,21,23,-1,25,-1,-1,-1,-1,-1,-1,-1,-1,-1,-1],"loss_changes":[4.6053665E1,2.0467323E1,0E0,6.2517796E0,4.0173397E0,7.216072E-1,2.0375142E0,8.437484E0,3.752264E0,0E0,6.3419294E-1,1.0462471E0,0E0,3.6591158E0,5.166013E0,0E0,2.4234888E-1,0E0,0E0,0E0,0E0,0E0,0E0,0E0,0E0,0E0,0E0],"parents":[2147483647,0,0,1,1,3,3,4,4,5,5,6,6,7,7,8,8,10,10,11,11,13,13,14,14,16,16],"right_children":[2,4,-1,6,8,10,12,14,16,-1,18,20,-1,22,24,-1,26,-1,-1,-1,-1,-1,-1,-1,-1,-1,-1],"split_conditions":[1.5493089E0,5.6E1,-9.98315E-2,4.225352E4,9.3789923E-1,5.4E1,3.65E1,7.1261905E6,1.6528926E4,9.8848216E-2,2.7777777E4,7.692308E4,-6.663569E-2,2.530493E-1,1.2628266E-1,-9.4809815E-2,2.5423729E4,6.50833E-2,-9.357799E-3,6.253217E-2,1.2151408E-2,9.21249E-2,1.6118761E-2,-1.2747918E-2,-1.1724196E-1,2.2300912E-2,-1.4470197E-2],"split_indices":[1,3,0,0,0,3,3,3,0,0,0,0,0,0,0,0,0,0,0,0,0,0,0,0,0,0,0],"split_type":[0,0,0,0,0,0,0,0,0,0,0,0,0,0,0,0,0,0,0,0,0,0,0,0,0,0,0],"sum_hessian":[1.6286722E2,1.275975E2,3.526971E1,5.706496E1,7.053255E1,3.8446533E1,1.8618427E1,5.6905758E1,1.3626788E1,3.518117E1,3.2653627E0,1.7240757E1,1.3776695E0,2.9687515E1,2.7218245E1,8.062327E0,5.5644603E0,1.6266692E0,1.6386935E0,6.2877083E0,1.0953049E1,8.372546E0,2.131497E1,2.2085945E1,5.132299E0,3.4332366E0,2.1312237E0],"tree_param":{"num_deleted":"0","num_feature":"4","num_nodes":"27","size_leaf_vector":"1"}},{"base_weights":[-3.390653E-3,2.6256248E-1,-9.9333085E-2,7.069054E-1,-7.195788E-2,9.592251E-1,2.0934428E-1,3.338654E-2,-5.3345764E-1,9.842307E-2,3.4637403E-2,3.0874935E-1,-6.46976E-2,1.3081096E-1,-4.5854487E-2,3.8216636E-1,-9.624175E-2,6.019325E-2,1.1127821E-2,6.8574697E-3,-9.619363E-2,1.16422705E-1,-6.934165E-2],"categories":[],"categories_nodes":[],"categories_segments":[],"categories_sizes":[],"default_left":[0,0,0,0,0,0,0,0,0,0,0,0,0,0,0,0,0,0,0,0,0,0,0],"id":34,"left_children":[1,3,-1,5,7,9,11,13,15,-1,-1,17,-1,-1,19,21,-1,-1,-1,-1,-1,-1,-1],"loss_changes":[4.1130848E1,1.8356564E1,0E0,6.4513397E0,3.47768E0,1.9359207E-1,1.8262781E0,6.007665E0,5.5856113E0,0E0,0E0,9.6341074E-1,0E0,0E0,5.9783845E0,4.9744463E0,0E0,0E0,0E0,0E0,0E0,0E0,0E0],"parents":[2147483647,0,0,1,1,3,3,4,4,5,5,6,6,7,7,8,8,11,11,14,14,15,15],"right_children":[2,4,-1,6,8,10,12,14,16,-1,-1,18,-1,-1,20,22,-1,-1,-1,-1,-1,-1,-1],"split_conditions":[8.555555E0,5.5E1,-9.9333085E-2,4.225352E4,1.54E7,5.4E1,3.65E1,7.6936826E-2,5.390613E-2,9.842307E-2,3.4637403E-2,7.692308E4,-6.46976E-2,1.3081096E-1,1.18E7,2.42E7,-9.624175E-2,6.019325E-2,1.1127821E-2,6.8574697E-3,-9.619363E-2,1.16422705E-1,-6.934165E-2],"split_indices":[2,3,0,0,3,3,3,0,0,0,0,0,0,0,3,3,0,0,0,0,0,0,0],"split_type":[0,0,0,0,0,0,0,0,0,0,0,0,0,0,0,0,0,0,0,0,0,0,0],"sum_hessian":[1.5423547E2,1.2215311E2,3.2082367E1,5.198642E1,7.016669E1,3.38784E1,1.8108025E1,5.788191E1,1.2284779E1,3.196805E1,1.9103479E0,1.6797544E1,1.3104798E0,2.4799428E0,5.5401966E1,3.953989E0,8.33079E0,5.936091E0,1.0861453E1,5.007248E1,5.329487E0,2.2416568E0,1.7123324E0],"tree_param":{"num_deleted":"0","num_feature":"4","num_nodes":"23","size_leaf_vector":"1"}},{"base_weights":[-3.2822627E-3,2.4764805E-1,-9.882678E-2,6.863734E-1,-6.666383E-2,9.525736E-1,1.9393417E-1,4.3759122E-2,-4.6502966E-1,9.798824E-2,3.3068594E-2,3.8164774E-1,-2.7750647E-1,8.123218E-1,-1.2856814E-1,-9.349112E-2,1.0386151E-1,6.708502E-2,-3.7676268E-3,-4.777343E-3,-6.283521E-2,9.71396E-2,-2.0937116E-3,8.396717E-4,-1.00538276E-1,3.4401134E-2,-5.9619583E-2],"categories":[],"categories_nodes":[],"categories_segments":[],"categories_sizes":[],"default_left":[0,0,0,0,0,0,0,0,0,0,0,0,0,0,0,0,0,0,0,0,0,0,0,0,0,0,0],"id":35,"left_children":[1,3,-1,5,7,9,11,13,15,-1,-1,17,19,21,23,-1,25,-1,-1,-1,-1,-1,-1,-1,-1,-1,-1],"loss_changes":[3.674259E1,1.6384539E1,0E0,6.309799E0,3.0970175E0,2.1778488E-1,1.7554761E0,7.4784822E0,4.177779E0,0E0,0E0,1.6930645E0,4.4450274E-1,1.3901091E0,5.5738497E0,0E0,1.5173174E0,0E0,0E0,0E0,0E0,0E0,0E0,0E0,0E0,0E0,0E0],"parents":[2147483647,0,0,1,1,3,3,4,4,5,5,6,6,7,7,8,8,11,11,12,12,13,13,14,14,16,16],"right_children":[2,4,-1,6,8,10,12,14,16,-1,-1,18,20,22,24,-1,26,-1,-1,-1,-1,-1,-1,-1,-1,-1,-1],"split_conditions":[1.5493089E0,5.5E1,-9.882678E-2,4.225352E4,9.3789923E-1,5.4E1,2.45E1,3.1345828E6,1.6528926E4,9.798824E-2,3.3068594E-2,1.1538462E5,3.65E1,6.789892E-1,3.5033017E-1,-9.349112E-2,2.7272727E4,6.708502E-2,-3.7676268E-3,-4.777343E-3,-6.283521E-2,9.71396E-2,-2.0937116E-3,8.396717E-4,-1.00538276E-1,3.4401134E-2,-5.9619583E-2],"split_indices":[1,3,0,0,0,3,3,3,0,0,0,0,3,0,0,0,0,0,0,0,0,0,0,0,0,0,0],"split_type":[0,0,0,0,0,0,0,0,0,0,0,0,0,0,0,0,0,0,0,0,0,0,0,0,0,0,0],"sum_hessian":[1.466673E2,1.17485756E2,2.9181545E1,4.8543556E1,6.89422E1,3.0903505E1,1.764005E1,5.4676563E1,1.4265634E1,2.9052088E1,1.851418E0,1.2752751E1,4.8872995E0,9.334002E0,4.5342564E1,7.460316E0,6.805317E0,7.1924047E0,5.5603466E0,3.6400003E0,1.247299E0,7.6985264E0,1.6354748E0,4.007325E1,5.2693105E0,5.4457765E0,1.3595403E0],"tree_param":{"num_deleted":"0","num_feature":"4","num_nodes":"27","size_leaf_vector":"1"}},{"base_weights":[-3.7946103E-3,2.3348983E-1,-9.831836E-2,6.560318E-1,-7.054812E-2,9.0952265E-1,1.6272749E-1,4.0382683E-2,-5.2092314E-1,9.639504E-2,3.141861E-1,3.601771E-1,-3.8828003E-1,9.982163E-2,-8.443419E-2,-9.2076115E-2,4.6631835E-2,6.36086E-2,-1.2595412E-2,6.478345E-2,-3.4426895E-3,-1.7280933E-2,-5.3050127E-2,4.9655577E-3,-1.06165744E-1,1.7775457E-2,-1.5183202E-2],"categories":[],"categories_nodes":[],"categories_segments":[],"categories_sizes":[],"default_left":[0,0,0,0,0,0,0,0,0,0,0,0,0,0,0,0,0,0,0,0,0,0,0,0,0,0,0],"id":36,"left_children":[1,3,-1,5,7,9,11,13,15,-1,17,19,21,-1,23,-1,25,-1,-1,-1,-1,-1,-1,-1,-1,-1,-1],"loss_changes":[3.2828777E1,1.4656559E1,0E0,5.815033E0,3.3704014E0,7.107544E-1,2.0333753E0,6.626173E0,3.0658982E0,0E0,6.6155565E-1,1.5355936E0,6.3773036E-2,0E0,6.5170636E0,0E0,1.9503611E-1,0E0,0E0,0E0,0E0,0E0,0E0,0E0,0E0,0E0,0E0],"parents":[2147483647,0,0,1,1,3,3,4,4,5,5,6,6,7,7,8,8,10,10,11,11,12,12,14,14,16,16],"right_children":[2,4,-1,6,8,10,12,14,16,-1,18,20,22,-1,24,-1,26,-1,-1,-1,-1,-1,-1,-1,-1,-1,-1],"split_conditions":[8.555555E0,5.6E1,-9.831836E-2,4.5454547E4,9.3789923E-1,5.4E1,2.45E1,1.8455526E6,1.6528926E4,9.639504E-2,2.7777777E4,1.1538462E5,5.5555555E4,9.982163E-2,5.520263E-1,-9.2076115E-2,2.5423729E4,6.36086E-2,-1.2595412E-2,6.478345E-2,-3.4426895E-3,-1.7280933E-2,-5.3050127E-2,4.9655577E-3,-1.06165744E-1,1.7775457E-2,-1.5183202E-2],"split_indices":[2,3,0,0,0,3,3,3,0,0,0,0,0,0,0,0,0,0,0,0,0,0,0,0,0,0,0],"split_type":[0,0,0,0,0,0,0,0,0,0,0,0,0,0,0,0,0,0,0,0,0,0,0,0,0,0,0],"sum_hessian":[1.3927577E2,1.1272627E2,2.6549503E1,4.6685944E1,6.604033E1,3.0281609E1,1.6404335E1,5.371921E1,1.2321116E1,2.7177757E1,3.1038504E0,1.2331692E1,4.0726438E0,5.38647E0,4.833274E1,6.863503E0,5.457613E0,1.5355932E0,1.5682572E0,6.7611976E0,5.570494E0,2.500048E0,1.5725957E0,4.333563E1,4.997114E0,3.3491902E0,2.1084228E0],"tree_param":{"num_deleted":"0","num_feature":"4","num_nodes":"27","size_leaf_vector":"1"}},{"base_weights":[-4.0110815E-3,2.1936941E-1,-9.779519E-2,6.434518E-1,-6.0090486E-2,9.3872046E-1,1.6329819E-1,8.301899E-2,-3.9935336E-1,9.708127E-2,3.1448867E-2,5.059231E-1,-8.741462E-2,5.56953E-1,-1.5629849E-1,3.5377342E-1,-6.014951E-1,8.8698946E-2,-1.6014569E-2,3.0223016E-2,-7.229494E-2,1.0396097E-1,2.162435E-2,3.2612793E-3,-1.1018143E-1,1.0767233E-1,-6.761616E-2,-1.746324E-2,-9.481721E-2],"categories":[],"categories_nodes":[],"categories_segments":[],"categories_sizes":[],"default_left":[0,0,0,0,0,0,0,0,0,0,0,0,0,0,0,0,0,0,0,0,0,0,0,0,0,0,0,0,0],"id":37,"left_children":[1,3,-1,5,7,9,11,13,15,-1,-1,17,19,21,23,25,27,-1,-1,-1,-1,-1,-1,-1,-1,-1,-1,-1,-1],"loss_changes":[2.9336245E1,1.3039653E1,0E0,6.0366116E0,3.288049E0,2.3206711E-1,1.5763233E0,5.5287933E0,3.2668996E0,0E0,0E0,2.0923114E0,2.980094E0,2.458507E0,5.869805E0,4.3577642E0,2.2297626E0,0E0,0E0,0E0,0E0,0E0,0E0,0E0,0E0,0E0,0E0,0E0,0E0],"parents":[2147483647,0,0,1,1,3,3,4,4,5,5,6,6,7,7,8,8,11,11,12,12,13,13,14,14,15,15,16,16],"right_children":[2,4,-1,6,8,10,12,14,16,-1,-1,18,20,22,24,26,28,-1,-1,-1,-1,-1,-1,-1,-1,-1,-1,-1,-1],"split_conditions":[1.5493089E0,5.5E1,-9.779519E-2,4.225352E4,1.18E7,5.4E1,1.5E1,2.7741998E-1,5.390613E-2,9.708127E-2,3.1448867E-2,1.4285714E5,7.692308E4,5.4671215E6,3.456E6,2.42E7,1.54E7,8.8698946E-2,-1.6014569E-2,3.0223016E-2,-7.229494E-2,1.0396097E-1,2.162435E-2,3.2612793E-3,-1.1018143E-1,1.0767233E-1,-6.761616E-2,-1.746324E-2,-9.481721E-2],"split_indices":[1,3,0,0,3,3,3,0,0,0,0,0,0,3,3,3,3,0,0,0,0,0,0,0,0,0,0,0,0],"split_type":[0,0,0,0,0,0,0,0,0,0,0,0,0,0,0,0,0,0,0,0,0,0,0,0,0,0,0,0,0],"sum_hessian":[1.3285638E2,1.087E2,2.4156384E1,4.2660263E1,6.6039734E1,2.5824524E1,1.683574E1,4.6978386E1,1.906135E1,2.403372E1,1.7908033E0,6.683757E0,1.0151982E1,1.5317336E1,3.1661049E1,3.8747878E0,1.5186563E1,4.040473E0,2.6432838E0,6.61859E0,3.5333924E0,5.4894924E0,9.827844E0,2.7193396E1,4.467653E0,2.25E0,1.6247879E0,7.480083E0,7.706479E0],"tree_param":{"num_deleted":"0","num_feature":"4","num_nodes":"29","size_leaf_vector":"1"}},{"base_weights":[-3.7136336E-3,2.0655815E-1,-9.726236E-2,6.1967564E-1,-5.6233235E-2,9.310469E-1,1.5134121E-1,4.1466396E-2,-5.0234693E-1,9.659704E-2,3.0002147E-2,3.9666274E-1,-2.1782726E-1,1.236149E-1,-3.7950624E-2,3.3257678E-1,-9.332259E-2,8.5142575E-2,-5.546354E-3,2.1569021E-2,-9.5893644E-2,7.4836346E-3,-9.374345E-2,1.0042753E-1,-6.57848E-2],"categories":[],"categories_nodes":[],"categories_segments":[],"categories_sizes":[],"default_left":[0,0,0,0,0,0,0,0,0,0,0,0,0,0,0,0,0,0,0,0,0,0,0,0,0],"id":38,"left_children":[1,3,-1,5,7,9,11,13,15,-1,-1,17,19,-1,21,23,-1,-1,-1,-1,-1,-1,-1,-1,-1],"loss_changes":[2.6262823E1,1.15355425E1,0E0,5.877387E0,2.8828304E0,2.522068E-1,1.6871593E0,5.2454042E0,4.581809E0,0E0,0E0,2.3034384E0,2.6813457E0,0E0,5.3806815E0,3.8399289E0,0E0,0E0,0E0,0E0,0E0,0E0,0E0,0E0,0E0],"parents":[2147483647,0,0,1,1,3,3,4,4,5,5,6,6,7,7,8,8,11,11,12,12,14,14,15,15],"right_children":[2,4,-1,6,8,10,12,14,16,-1,-1,18,20,-1,22,24,-1,-1,-1,-1,-1,-1,-1,-1,-1],"split_conditions":[8.555555E0,5.5E1,-9.726236E-2,4.225352E4,1.54E7,5.4E1,2E1,7.6936826E-2,5.390613E-2,9.659704E-2,3.0002147E-2,1.1538462E5,6.25E4,1.236149E-1,1.18E7,2.42E7,-9.332259E-2,8.5142575E-2,-5.546354E-3,2.1569021E-2,-9.5893644E-2,7.4836346E-3,-9.374345E-2,1.0042753E-1,-6.57848E-2],"split_indices":[2,3,0,0,3,3,3,0,0,0,0,0,0,0,3,3,0,0,0,0,0,0,0,0,0],"split_type":[0,0,0,0,0,0,0,0,0,0,0,0,0,0,0,0,0,0,0,0,0,0,0,0,0],"sum_hessian":[1.2692104E2,1.0493498E2,2.1986063E1,4.0270405E1,6.466457E1,2.3595192E1,1.6675215E1,5.3791256E1,1.08733225E1,2.1854864E1,1.7403275E0,9.973261E0,6.7019534E0,2.4450278E0,5.1346226E1,3.7789361E0,7.094386E0,4.5318365E0,5.4414244E0,4.6757817E0,2.0261714E0,4.643989E1,4.906333E0,2.2434564E0,1.5354798E0],"tree_param":{"num_deleted":"0","num_feature":"4","num_nodes":"25","size_leaf_vector":"1"}},{"base_weights":[-3.520072E-3,1.9387409E-1,-9.670724E-2,5.9578884E-1,-5.2376088E-2,9.229527E-1,1.393744E-1,5.404114E-2,-4.39077E-1,9.608968E-2,2.8612867E-2,3.2618177E-1,-2.9443336E-1,7.0455223E-1,-1.1776718E-1,-9.082825E-2,7.0367925E-2,6.1711222E-2,-5.0658374E-3,-6.7585455E-3,-6.258477E-2,8.340114E-2,-3.0527203E-3,6.7742117E-4,-9.535726E-2,3.0564442E-2,-5.850284E-2],"categories":[],"categories_nodes":[],"categories_segments":[],"categories_sizes":[],"default_left":[0,0,0,0,0,0,0,0,0,0,0,0,0,0,0,0,0,0,0,0,0,0,0,0,0,0,0],"id":39,"left_children":[1,3,-1,5,7,9,11,13,15,-1,-1,17,19,21,23,-1,25,-1,-1,-1,-1,-1,-1,-1,-1,-1,-1],"loss_changes":[2.3507608E1,1.01851635E1,0E0,5.703662E0,2.6794984E0,2.705021E-1,1.5130594E0,5.838711E0,3.4191935E0,0E0,0E0,1.4232792E0,3.9291185E-1,1.0630245E0,4.336321E0,0E0,1.3596575E0,0E0,0E0,0E0,0E0,0E0,0E0,0E0,0E0,0E0,0E0],"parents":[2147483647,0,0,1,1,3,3,4,4,5,5,6,6,7,7,8,8,11,11,12,12,13,13,14,14,16,16],"right_children":[2,4,-1,6,8,10,12,14,16,-1,-1,18,20,22,24,-1,26,-1,-1,-1,-1,-1,-1,-1,-1,-1,-1],"split_conditions":[1.5493089E0,5.5E1,-9.670724E-2,4.225352E4,9.3789923E-1,5.4E1,2.45E1,3.324114E6,1.6528926E4,9.608968E-2,2.8612867E-2,1.1538462E5,3.65E1,6.789892E-1,3.167205E-1,-9.082825E-2,2.7272727E4,6.1711222E-2,-5.0658374E-3,-6.7585455E-3,-6.258477E-2,8.340114E-2,-3.0527203E-3,6.7742117E-4,-9.535726E-2,3.0564442E-2,-5.850284E-2],"split_indices":[1,3,0,0,0,3,3,3,0,0,0,0,3,0,0,0,0,0,0,0,0,0,0,0,0,0,0],"split_type":[0,0,0,0,0,0,0,0,0,0,0,0,0,0,0,0,0,0,0,0,0,0,0,0,0,0,0],"sum_hessian":[1.2160865E2,1.0159467E2,2.001398E1,3.805847E1,6.3536198E1,2.1572699E1,1.6485775E1,5.049939E1,1.3036808E1,1.9879333E1,1.6933639E0,1.1696917E1,4.788859E0,9.903051E0,4.059634E1,6.378885E0,6.657923E0,6.241059E0,5.4558578E0,3.5576403E0,1.2312186E0,8.305699E0,1.5973527E0,3.6194916E1,4.401424E0,5.2918763E0,1.3660471E0],"tree_param":{"num_deleted":"0","num_feature":"4","num_nodes":"27","size_leaf_vector":"1"}},{"base_weights":[-4.354347E-3,1.8143377E-1,-9.613454E-2,5.6458795E-1,-5.7378683E-2,9.151064E-1,1.6968164E-1,4.940411E-2,-4.9544886E-1,9.574881E-2,1.6381932E-2,2.5786257E-1,-7.141214E-2,4.298681E-1,-2.38637E-1,-8.941006E-2,1.3814954E-2,5.474928E-2,2.027653E-4,8.144995E-2,4.340581E-3,-8.831779E-3,-1.402554E-1,1.3533192E-2,-1.5873065E-2],"categories":[],"categories_nodes":[],"categories_segments":[],"categories_sizes":[],"default_left":[0,0,0,0,0,0,0,0,0,0,0,0,0,0,0,0,0,0,0,0,0,0,0,0,0],"id":40,"left_children":[1,3,-1,5,7,9,11,13,15,-1,-1,17,-1,19,21,-1,23,-1,-1,-1,-1,-1,-1,-1,-1],"loss_changes":[2.1026276E1,9.095961E0,0E0,5.1220694E0,2.921374E0,4.7900772E-1,1.6769853E0,5.6588144E0,2.4947937E0,0E0,0E0,1.3439051E0,0E0,3.264944E0,5.0370784E0,0E0,1.5470183E-1,0E0,0E0,0E0,0E0,0E0,0E0,0E0,0E0],"parents":[2147483647,0,0,1,1,3,3,4,4,5,5,6,6,7,7,8,8,11,11,13,13,14,14,16,16],"right_children":[2,4,-1,6,8,10,12,14,16,-1,-1,18,-1,20,22,-1,24,-1,-1,-1,-1,-1,-1,-1,-1],"split_conditions":[8.555555E0,5.6E1,-9.613454E-2,3.7037035E4,9.3789923E-1,5.5E1,4.05E1,5.4671215E6,1.6528926E4,9.574881E-2,1.6381932E-2,7.692308E4,-7.141214E-2,4.0314066E-1,1.8333371E-1,-8.941006E-2,2.5423729E4,5.474928E-2,2.027653E-4,8.144995E-2,4.340581E-3,-8.831779E-3,-1.402554E-1,1.3533192E-2,-1.5873065E-2],"split_indices":[2,3,0,0,0,3,3,3,0,0,0,0,0,0,0,0,0,0,0,0,0,0,0,0,0],"split_type":[0,0,0,0,0,0,0,0,0,0,0,0,0,0,0,0,0,0,0,0,0,0,0,0,0],"sum_hessian":[1.16278625E2,9.805321E1,1.8225418E1,3.7125065E1,6.0928143E1,1.8970018E1,1.8155048E1,4.970051E1,1.1227637E1,1.7697216E1,1.2728009E0,1.7151957E1,1.0030911E0,2.1202475E1,2.8498034E1,5.8738856E0,5.353751E0,7.5099416E0,9.6420145E0,1.0071305E1,1.1131169E1,2.6191319E1,2.3067143E0,3.2679439E0,2.0858076E0],"tree_param":{"num_deleted":"0","num_feature":"4","num_nodes":"25","size_leaf_vector":"1"}},{"base_weights":[-5.4539493E-3,1.68547E-1,-9.5528595E-2,5.4044455E-1,-5.51485E-2,9.056432E-1,1.5509045E-1,4.3997772E-2,-4.727911E-1,9.5150664E-2,1.559318E-2,2.3751126E-1,-5.436014E-2,9.589544E-2,-7.146451E-2,-8.7983E-2,1.2106559E-2,5.2553844E-2,1.8437525E-4,5.68267E-3,-1.02800064E-1,1.2555835E-2,-1.4685364E-2],"categories":[],"categories_nodes":[],"categories_segments":[],"categories_sizes":[],"default_left":[0,0,0,0,0,0,0,0,0,0,0,0,0,0,0,0,0,0,0,0,0,0,0],"id":41,"left_children":[1,3,-1,5,7,9,11,13,15,-1,-1,17,-1,-1,19,-1,21,-1,-1,-1,-1,-1,-1],"loss_changes":[1.8784317E1,8.0234165E0,0E0,4.951354E0,2.5427516E0,4.8326206E-1,1.2124004E0,5.36499E0,2.3336942E0,0E0,0E0,1.1884303E0,0E0,0E0,5.635607E0,0E0,1.330946E-1,0E0,0E0,0E0,0E0,0E0,0E0],"parents":[2147483647,0,0,1,1,3,3,4,4,5,5,6,6,7,7,8,8,11,11,14,14,16,16],"right_children":[2,4,-1,6,8,10,12,14,16,-1,-1,18,-1,-1,20,-1,22,-1,-1,-1,-1,-1,-1],"split_conditions":[8.555555E0,5.6E1,-9.5528595E-2,3.7037035E4,9.3789923E-1,5.5E1,4E1,1.8455526E6,1.6528926E4,9.5150664E-2,1.559318E-2,7.692308E4,-5.436014E-2,9.589544E-2,5.520263E-1,-8.7983E-2,2.5423729E4,5.2553844E-2,1.8437525E-4,5.68267E-3,-1.02800064E-1,1.2555835E-2,-1.4685364E-2],"split_indices":[2,3,0,0,0,3,3,3,0,0,0,0,0,0,0,0,0,0,0,0,0,0,0],"split_type":[0,0,0,0,0,0,0,0,0,0,0,0,0,0,0,0,0,0,0,0,0,0,0],"sum_hessian":[1.11683E2,9.5086525E1,1.6596474E1,3.5181202E1,5.990532E1,1.7369772E1,1.781143E1,4.913546E1,1.0769861E1,1.611479E1,1.2549825E0,1.6522432E1,1.2889972E0,4.68722E0,4.444824E1,5.412211E0,5.3576503E0,6.8817377E0,9.640696E0,4.0021168E1,4.4270725E0,3.2489576E0,2.1086926E0],"tree_param":{"num_deleted":"0","num_feature":"4","num_nodes":"23","size_leaf_vector":"1"}},{"base_weights":[-5.9289946E-3,1.5714227E-1,-9.490452E-2,5.1647824E-1,-5.2154176E-2,8.95676E-1,1.4213407E-1,1.045216E-1,-3.262485E-1,9.452209E-2,1.4841494E-2,4.7527426E-1,-6.665845E-2,8.177961E-1,-1.4039262E-1,-1.21372804E-1,-9.894095E-2,8.614197E-2,-1.4054859E-2,2.9445613E-2,-7.829826E-2,8.7997295E-2,2.3602726E-2,4.676838E-3,-1.2512313E-1,3.9371297E-2,-4.783904E-2],"categories":[],"categories_nodes":[],"categories_segments":[],"categories_sizes":[],"default_left":[0,0,0,0,0,0,0,0,0,0,0,0,0,0,0,0,0,0,0,0,0,0,0,0,0,0,0],"id":42,"left_children":[1,3,-1,5,7,9,11,13,15,-1,-1,17,19,21,23,25,-1,-1,-1,-1,-1,-1,-1,-1,-1,-1,-1],"loss_changes":[1.682577E1,7.044341E0,0E0,4.760785E0,2.6052296E0,4.8607254E-1,1.3196794E0,6.902104E0,2.871489E0,0E0,0E0,1.8468038E0,3.4018984E0,1.5682793E-1,6.249052E0,3.4913895E0,0E0,0E0,0E0,0E0,0E0,0E0,0E0,0E0,0E0,0E0,0E0],"parents":[2147483647,0,0,1,1,3,3,4,4,5,5,6,6,7,7,8,8,11,11,12,12,13,13,14,14,15,15],"right_children":[2,4,-1,6,8,10,12,14,16,-1,-1,18,20,22,24,26,-1,-1,-1,-1,-1,-1,-1,-1,-1,-1,-1],"split_conditions":[1.5493089E0,5.6E1,-9.490452E-2,3.7037035E4,9.215732E6,5.5E1,1.5E1,2.530493E-1,1.0515315E-1,9.452209E-2,1.4841494E-2,1.4285714E5,7.692308E4,2.4331315E-1,4.11991E6,1.54E7,-9.894095E-2,8.614197E-2,-1.4054859E-2,2.9445613E-2,-7.829826E-2,8.7997295E-2,2.3602726E-2,4.676838E-3,-1.2512313E-1,3.9371297E-2,-4.783904E-2],"split_indices":[1,3,0,0,3,3,3,0,0,0,0,0,0,0,3,3,0,0,0,0,0,0,0,0,0,0,0],"split_type":[0,0,0,0,0,0,0,0,0,0,0,0,0,0,0,0,0,0,0,0,0,0,0,0,0,0,0],"sum_hessian":[1.0743408E2,9.230695E1,1.5127126E1,3.3435192E1,5.887176E1,1.59180765E1,1.7517115E1,3.785311E1,2.101865E1,1.4679859E1,1.2382178E0,6.257162E0,1.12599535E1,9.077421E0,2.877569E1,1.696159E1,4.0570602E0,3.6006198E0,2.656542E0,7.877612E0,3.3823407E0,7.7378535E0,1.3395679E0,2.5446245E1,3.3294435E0,6.90158E0,1.0060011E1],"tree_param":{"num_deleted":"0","num_feature":"4","num_nodes":"27","size_leaf_vector":"1"}},{"base_weights":[-6.1950376E-3,1.4646067E-1,-9.423907E-2,4.9218234E-1,-4.999265E-2,8.85176E-1,1.3149557E-1,4.6034794E-2,-4.5469877E-1,9.38599E-2,1.41252605E-2,3.630717E-1,-1.5241581E-1,4.1195846E-1,-2.2121271E-1,-8.662092E-2,6.6743735E-3,8.3135135E-2,-6.845832E-3,2.3782862E-2,-1.0534357E-1,7.119183E-2,-2.5032763E-3,-8.721338E-3,-1.2808298E-1,1.1307897E-2,-1.393909E-2],"categories":[],"categories_nodes":[],"categories_segments":[],"categories_sizes":[],"default_left":[0,0,0,0,0,0,0,0,0,0,0,0,0,0,0,0,0,0,0,0,0,0,0,0,0,0,0],"id":43,"left_children":[1,3,-1,5,7,9,11,13,15,-1,-1,17,19,21,23,-1,25,-1,-1,-1,-1,-1,-1,-1,-1,-1,-1],"loss_changes":[1.50735855E1,6.1861434E0,0E0,4.5561676E0,2.3043618E0,4.8744583E-1,1.2626495E0,4.823906E0,2.1625497E0,0E0,0E0,2.1603923E0,3.3988025E0,2.7411833E0,3.9519758E0,0E0,1.1441962E-1,0E0,0E0,0E0,0E0,0E0,0E0,0E0,0E0,0E0,0E0],"parents":[2147483647,0,0,1,1,3,3,4,4,5,5,6,6,7,7,8,8,11,11,12,12,13,13,14,14,16,16],"right_children":[2,4,-1,6,8,10,12,14,16,-1,-1,18,20,22,24,-1,26,-1,-1,-1,-1,-1,-1,-1,-1,-1,-1],"split_conditions":[1.5493089E0,5.6E1,-9.423907E-2,3.7037035E4,9.3789923E-1,5.5E1,2E1,5.4671215E6,1.6528926E4,9.38599E-2,1.41252605E-2,1.1538462E5,6.25E4,5.520263E-1,1.8333371E-1,-8.662092E-2,2.5423729E4,8.3135135E-2,-6.845832E-3,2.3782862E-2,-1.0534357E-1,7.119183E-2,-2.5032763E-3,-8.721338E-3,-1.2808298E-1,1.1307897E-2,-1.393909E-2],"split_indices":[1,3,0,0,0,3,3,3,0,0,0,0,0,0,0,0,0,0,0,0,0,0,0,0,0,0,0],"split_type":[0,0,0,0,0,0,0,0,0,0,0,0,0,0,0,0,0,0,0,0,0,0,0,0,0,0,0],"sum_hessian":[1.0350617E2,8.972002E1,1.3786155E1,3.196397E1,5.7756046E1,1.46010065E1,1.7362965E1,4.7396255E1,1.035979E1,1.337857E1,1.2224374E0,9.409311E0,7.9536524E0,1.977636E1,2.7619898E1,5.012E0,5.3477893E0,4.0681705E0,5.341141E0,6.063507E0,1.8901453E0,1.1353764E1,8.422596E0,2.548E1,2.1398983E0,3.2245932E0,2.1231961E0],"tree_param":{"num_deleted":"0","num_feature":"4","num_nodes":"27","size_leaf_vector":"1"}},{"base_weights":[-7.0732725E-3,1.3560288E-1,-9.354911E-2,4.887148E-1,-3.7969705E-2,9.3338765E-2,8.189876E-2,5.105759E-2,-4.4936544E-1,3.4482372E-1,-2.9784122E-1,1.1524787E-1,-2.7495641E-2,3.634317E-1,-9.0883315E-2,8.160705E-2,-6.25135E-3,1.3301472E-2,-9.19169E-2,8.245715E-3,-9.122587E-2,9.774743E-2,-6.2416494E-2],"categories":[],"categories_nodes":[],"categories_segments":[],"categories_sizes":[],"default_left":[0,0,0,0,0,0,0,0,0,0,0,0,0,0,0,0,0,0,0,0,0,0,0],"id":44,"left_children":[1,3,-1,5,7,-1,9,11,13,15,17,-1,19,21,-1,-1,-1,-1,-1,-1,-1,-1,-1],"loss_changes":[1.350188E1,5.436339E0,0E0,5.2064357E0,2.2274938E0,0E0,1.7348402E0,4.390694E0,4.367482E0,1.9941183E0,2.0562525E0,0E0,4.745164E0,3.410839E0,0E0,0E0,0E0,0E0,0E0,0E0,0E0,0E0,0E0],"parents":[2147483647,0,0,1,1,3,3,4,4,6,6,7,7,8,8,9,9,10,10,12,12,13,13],"right_children":[2,4,-1,6,8,-1,10,12,14,16,18,-1,20,22,-1,-1,-1,-1,-1,-1,-1,-1,-1],"split_conditions":[8.555555E0,5.4E1,-9.354911E-2,4.225352E4,1.54E7,9.3338765E-2,2E1,7.6936826E-2,5.390613E-2,1.1538462E5,6.25E4,1.1524787E-1,1.18E7,2.42E7,-9.0883315E-2,8.160705E-2,-6.25135E-3,1.3301472E-2,-9.19169E-2,8.245715E-3,-9.122587E-2,9.774743E-2,-6.2416494E-2],"split_indices":[2,3,0,0,3,0,3,0,0,0,0,0,3,3,0,0,0,0,0,0,0,0,0],"split_type":[0,0,0,0,0,0,0,0,0,0,0,0,0,0,0,0,0,0,0,0,0,0,0],"sum_hessian":[9.997172E1,8.739507E1,1.257664E1,2.8203308E1,5.9191765E1,1.2856289E1,1.5347019E1,4.938138E1,9.8103895E0,9.122627E0,6.2243915E0,2.3772902E0,4.7004086E1,3.6184237E0,6.1919656E0,3.7642984E0,5.358329E0,4.1396766E0,2.084715E0,4.261497E1,4.3891172E0,2.2374985E0,1.3809249E0],"tree_param":{"num_deleted":"0","num_feature":"4","num_nodes":"23","size_leaf_vector":"1"}},{"base_weights":[-6.9874744E-3,1.2654361E-1,-9.2817485E-2,4.4506013E-1,-4.584641E-2,8.6385095E-1,1.068697E-1,4.7728766E-2,-4.4018906E-1,9.251686E-2,1.3044302E-2,4.4804254E-1,-9.7203024E-2,9.336179E-2,-6.4409696E-2,-8.530732E-2,-1.3118307E-3,8.363123E-2,-1.2035075E-2,2.715627E-2,-8.36333E-2,6.3859196E-3,-1.0029284E-1,9.887117E-3,-1.3515526E-2],"categories":[],"categories_nodes":[],"categories_segments":[],"categories_sizes":[],"default_left":[0,0,0,0,0,0,0,0,0,0,0,0,0,0,0,0,0,0,0,0,0,0,0,0,0],"id":45,"left_children":[1,3,-1,5,7,9,11,13,15,-1,-1,17,19,-1,21,-1,23,-1,-1,-1,-1,-1,-1,-1,-1],"loss_changes":[1.2122977E1,4.749377E0,0E0,4.204365E0,2.1164715E0,4.82481E-1,1.2915523E0,4.7091446E0,1.9900773E0,0E0,0E0,1.6205708E0,3.5081882E0,0E0,5.1773233E0,0E0,9.821644E-2,0E0,0E0,0E0,0E0,0E0,0E0,0E0,0E0],"parents":[2147483647,0,0,1,1,3,3,4,4,5,5,6,6,7,7,8,8,11,11,12,12,14,14,16,16],"right_children":[2,4,-1,6,8,10,12,14,16,-1,-1,18,20,-1,22,-1,24,-1,-1,-1,-1,-1,-1,-1,-1],"split_conditions":[1.5493089E0,5.6E1,-9.2817485E-2,3.7037035E4,9.3789923E-1,5.5E1,1.5E1,1.8455526E6,1.6528926E4,9.251686E-2,1.3044302E-2,1.4285714E5,7.692308E4,9.336179E-2,5.520263E-1,-8.530732E-2,2.5423729E4,8.363123E-2,-1.2035075E-2,2.715627E-2,-8.36333E-2,6.3859196E-3,-1.0029284E-1,9.887117E-3,-1.3515526E-2],"split_indices":[1,3,0,0,0,3,3,3,0,0,0,0,0,0,0,0,0,0,0,0,0,0,0,0,0],"split_type":[0,0,0,0,0,0,0,0,0,0,0,0,0,0,0,0,0,0,0,0,0,0,0,0,0],"sum_hessian":[9.6600204E1,8.5123695E1,1.147651E1,2.9337164E1,5.5786533E1,1.24123125E1,1.6924852E1,4.5797924E1,9.98861E0,1.121334E1,1.1989731E0,5.887129E0,1.1037723E1,4.322756E0,4.147517E1,4.660434E0,5.3281765E0,3.2177322E0,2.6693966E0,7.7858224E0,3.2519004E0,3.730816E1,4.16701E0,3.196706E0,2.1314704E0],"tree_param":{"num_deleted":"0","num_feature":"4","num_nodes":"25","size_leaf_vector":"1"}},{"base_weights":[-7.0824176E-3,1.17696956E-1,-9.205124E-2,2.4444985E-1,-2.9078382E-1,8.212424E-2,1.5771317E-1,-9.3121305E-2,-9.5658354E-2,2.718705E-1,-1.290839E-1,3.6922812E-1,-4.3269256E-1,8.454966E-2,1.6301705E-2,1.0911218E-1,-1.4537769E-2,3.3600777E-2,-8.928596E-2],"categories":[],"categories_nodes":[],"categories_segments":[],"categories_sizes":[],"default_left":[0,0,0,0,0,0,0,0,0,0,0,0,0,0,0,0,0,0,0],"id":46,"left_children":[1,3,-1,5,7,-1,9,11,-1,13,-1,15,17,-1,-1,-1,-1,-1,-1],"loss_changes":[1.0889251E1,4.425797E0,0E0,3.108959E0,2.5923018E0,0E0,9.860605E0,2.8002565E0,0E0,3.242291E0,0E0,3.004714E0,3.892887E0,0E0,0E0,0E0,0E0,0E0,0E0],"parents":[2147483647,0,0,1,1,3,3,4,4,6,6,7,7,9,9,11,11,12,12],"right_children":[2,4,-1,6,8,-1,10,12,-1,14,-1,16,18,-1,-1,-1,-1,-1,-1],"split_conditions":[8.555555E0,9.215732E6,-9.205124E-2,2.4331315E-1,1.0515315E-1,8.212424E-2,4.2832395E6,1.54E7,-9.5658354E-2,5.520263E-1,-1.290839E-1,7.6936826E-2,5.390613E-2,8.454966E-2,1.6301705E-2,1.0911218E-1,-1.4537769E-2,3.3600777E-2,-8.928596E-2],"split_indices":[2,3,0,0,0,0,3,3,0,0,0,0,0,0,0,0,0,0,0],"split_type":[0,0,0,0,0,0,0,0,0,0,0,0,0,0,0,0,0,0,0],"sum_hessian":[9.358827E1,8.310662E1,1.0481656E1,6.3731953E1,1.9374666E1,7.2240868E0,5.6507866E1,1.5818374E1,3.556293E0,5.3132893E1,3.374975E0,6.6612678E0,9.157106E0,7.395177E0,4.5737713E1,2.306035E0,4.3552327E0,3.5300457E0,5.627061E0],"tree_param":{"num_deleted":"0","num_feature":"4","num_nodes":"19","size_leaf_vector":"1"}},{"base_weights":[-8.077861E-3,1.08610414E-1,-9.1252625E-2,4.329768E-1,-4.6486318E-2,9.1850355E-2,5.3979654E-2,-5.332162E-3,-9.609243E-2,2.7076584E-1,-4.435762E-1,7.854923E-2,-6.129063E-2,7.717761E-2,1.7664796E-3,-1.989686E-2,-6.531976E-2,3.7020321E-3,-5.55003E-2],"categories":[],"categories_nodes":[],"categories_segments":[],"categories_sizes":[],"default_left":[0,0,0,0,0,0,0,0,0,0,0,0,0,0,0,0,0,0,0],"id":47,"left_children":[1,3,-1,5,7,-1,9,11,-1,13,15,-1,17,-1,-1,-1,-1,-1,-1],"loss_changes":[9.775704E0,4.1506295E0,0E0,4.855469E0,2.1191812E0,0E0,1.8494477E0,2.4830759E0,0E0,1.4811752E0,1.3895142E-1,0E0,2.559734E0,0E0,0E0,0E0,0E0,0E0,0E0],"parents":[2147483647,0,0,1,1,3,3,4,4,6,6,7,7,9,9,10,10,12,12],"right_children":[2,4,-1,6,8,-1,10,12,-1,14,16,-1,18,-1,-1,-1,-1,-1,-1],"split_conditions":[1.5493089E0,5.4E1,-9.1252625E-2,4.225352E4,2.7777777E4,9.1850355E-2,2.45E1,6E1,-9.609243E-2,8.82353E4,5.5555555E4,7.854923E-2,9.3789923E-1,7.717761E-2,1.7664796E-3,-1.989686E-2,-6.531976E-2,3.7020321E-3,-5.55003E-2],"split_indices":[1,3,0,0,0,0,3,3,0,0,0,0,0,0,0,0,0,0,0],"split_type":[0,0,0,0,0,0,0,0,0,0,0,0,0,0,0,0,0,0,0],"sum_hessian":[9.068779E1,8.1104E1,9.583795E0,2.5655956E1,5.5448044E1,1.062322E1,1.5032735E1,5.4022594E1,1.4254482E0,1.0788131E1,4.2446046E0,2.708472E0,5.131412E1,2.9330049E0,7.855126E0,2.8583598E0,1.3862447E0,4.3564346E1,7.7497764E0],"tree_param":{"num_deleted":"0","num_feature":"4","num_nodes":"19","size_leaf_vector":"1"}},{"base_weights":[-8.006503E-3,1.0023197E-1,-9.038934E-2,2.205885E-1,-2.8259364E-1,7.962615E-1,1.3547331E-1,-9.105779E-2,-9.328175E-2,8.6010434E-2,2.6571427E-2,2.4445456E-1,-1.2334023E-1,3.3765274E-1,-4.1597512E-1,8.256687E-2,1.3725171E-2,1.0381649E-1,-1.4470509E-2,3.0466108E-2,-8.785838E-2],"categories":[],"categories_nodes":[],"categories_segments":[],"categories_sizes":[],"default_left":[0,0,0,0,0,0,0,0,0,0,0,0,0,0,0,0,0,0,0,0,0],"id":48,"left_children":[1,3,-1,5,7,9,11,13,-1,-1,-1,15,-1,17,19,-1,-1,-1,-1,-1,-1],"loss_changes":[8.780336E0,3.7877126E0,0E0,2.933749E0,2.3782134E0,3.534794E-2,8.549011E0,2.4229107E0,0E0,0E0,0E0,3.1293383E0,0E0,2.7238104E0,3.5244706E0,0E0,0E0,0E0,0E0,0E0,0E0],"parents":[2147483647,0,0,1,1,3,3,4,4,5,5,6,6,7,7,11,11,13,13,14,14],"right_children":[2,4,-1,6,8,10,12,14,-1,-1,-1,16,-1,18,20,-1,-1,-1,-1,-1,-1],"split_conditions":[1.5493089E0,9.215732E6,-9.038934E-2,2.4331315E-1,1.0515315E-1,8.512578E6,4.2832395E6,1.54E7,-9.328175E-2,8.6010434E-2,2.6571427E-2,5.520263E-1,-1.2334023E-1,7.6936826E-2,5.390613E-2,8.256687E-2,1.3725171E-2,1.0381649E-1,-1.4470509E-2,3.0466108E-2,-8.785838E-2],"split_indices":[1,3,0,0,0,3,3,3,0,0,0,0,0,0,0,0,0,0,0,0,0],"split_type":[0,0,0,0,0,0,0,0,0,0,0,0,0,0,0,0,0,0,0,0,0],"sum_hessian":[8.861317E1,7.985361E1,8.7595625E0,6.1075783E1,1.8777824E1,6.7908764E0,5.4284904E1,1.5385711E1,3.392114E0,5.5070295E0,1.2838467E0,5.1042633E1,3.2422736E0,6.61646E0,8.769251E0,6.9048996E0,4.4137733E1,2.2282197E0,4.38824E0,3.561967E0,5.2072835E0],"tree_param":{"num_deleted":"0","num_feature":"4","num_nodes":"21","size_leaf_vector":"1"}},{"base_weights":[-8.5846195E-3,9.261683E-2,-8.948383E-2,4.0188518E-1,-5.2541614E-2,9.0942375E-2,3.6711358E-2,-1.2465519E-2,-8.785082E-2,2.4535927E-1,-4.205451E-1,7.6358445E-2,-6.585208E-2,7.525323E-2,4.02337E-4,-2.0235771E-2,-6.286639E-2,2.7889102E-3,-5.2452207E-2],"categories":[],"categories_nodes":[],"categories_segments":[],"categories_sizes":[],"default_left":[0,0,0,0,0,0,0,0,0,0,0,0,0,0,0,0,0,0,0],"id":49,"left_children":[1,3,-1,5,7,-1,9,11,-1,13,15,-1,17,-1,-1,-1,-1,-1,-1],"loss_changes":[7.8890553E0,3.5686073E0,0E0,4.666371E0,1.7984992E0,0E0,1.609553E0,2.2522602E0,0E0,1.4013102E0,1.1416328E-1,0E0,2.1923127E0,0E0,0E0,0E0,0E0,0E0,0E0],"parents":[2147483647,0,0,1,1,3,3,4,4,6,6,7,7,9,9,10,10,12,12],"right_children":[2,4,-1,6,8,-1,10,12,-1,14,16,-1,18,-1,-1,-1,-1,-1,-1],"split_conditions":[8.555555E0,5.4E1,-8.948383E-2,4.225352E4,2.7777777E4,9.0942375E-2,2.45E1,6E1,-8.785082E-2,8.82353E4,3.65E1,7.6358445E-2,9.3789923E-1,7.525323E-2,4.02337E-4,-2.0235771E-2,-6.286639E-2,2.7889102E-3,-5.2452207E-2],"split_indices":[2,3,0,0,0,0,3,3,0,0,3,0,0,0,0,0,0,0,0],"split_type":[0,0,0,0,0,0,0,0,0,0,0,0,0,0,0,0,0,0,0],"sum_hessian":[8.603495E1,7.8021194E1,8.013757E0,2.4357515E1,5.3663677E1,9.5684185E0,1.4789097E1,5.214851E1,1.5151663E0,1.0473436E1,4.3156605E0,2.5002902E0,4.964822E1,2.6939154E0,7.779521E0,3.069734E0,1.2459264E0,4.2003006E1,7.645215E0],"tree_param":{"num_deleted":"0","num_feature":"4","num_nodes":"19","size_leaf_vector":"1"}},{"base_weights":[-8.4462855E-3,8.567319E-2,-8.8543564E-2,1.9802822E-1,-2.7000275E-1,7.6456463E-1,1.1513741E-1,-8.557763E-2,-9.080698E-2,8.284303E-2,2.518377E-2,2.1894343E-1,-1.1813559E-1,3.1848225E-1,-3.992732E-1,7.939135E-2,1.1515825E-2,9.91201E-2,-1.3491471E-2,2.7687991E-2,-8.641019E-2],"categories":[],"categories_nodes":[],"categories_segments":[],"categories_sizes":[],"default_left":[0,0,0,0,0,0,0,0,0,0,0,0,0,0,0,0,0,0,0,0,0],"id":50,"left_children":[1,3,-1,5,7,9,11,13,-1,-1,-1,15,-1,17,19,-1,-1,-1,-1,-1,-1],"loss_changes":[7.1049967E0,3.163182E0,0E0,2.7161348E0,2.170332E0,3.5137653E-2,7.427764E0,2.1455822E0,0E0,0E0,0E0,2.902002E0,0E0,2.4261618E0,3.1962173E0,0E0,0E0,0E0,0E0,0E0,0E0],"parents":[2147483647,0,0,1,1,3,3,4,4,5,5,6,6,7,7,11,11,13,13,14,14],"right_children":[2,4,-1,6,8,10,12,14,-1,-1,-1,16,-1,18,20,-1,-1,-1,-1,-1,-1],"split_conditions":[1.5493089E0,9.215732E6,-8.8543564E-2,2.4331315E-1,1.0515315E-1,8.512578E6,4.2832395E6,1.54E7,-9.080698E-2,8.284303E-2,2.518377E-2,5.520263E-1,-1.1813559E-1,7.6936826E-2,5.390613E-2,7.939135E-2,1.1515825E-2,9.91201E-2,-1.3491471E-2,2.7687991E-2,-8.641019E-2],"split_indices":[1,3,0,0,0,3,3,3,0,0,0,0,0,0,0,0,0,0,0,0,0],"split_type":[0,0,0,0,0,0,0,0,0,0,0,0,0,0,0,0,0,0,0,0,0],"sum_hessian":[8.4158554E1,7.6816795E1,7.3417544E0,5.8713066E1,1.810373E1,6.4442935E0,5.2268772E1,1.4924201E1,3.1795292E0,5.1829667E0,1.261327E0,4.9163536E1,3.1052387E0,6.5159645E0,8.4082365E0,6.500602E0,4.2662933E1,2.1458843E0,4.37008E0,3.590187E0,4.8180494E0],"tree_param":{"num_deleted":"0","num_feature":"4","num_nodes":"21","size_leaf_vector":"1"}},{"base_weights":[-9.032607E-3,7.900297E-2,-8.753943E-2,3.64936E-1,-6.2107507E-2,9.0117924E-2,4.110665E-2,-2.05145E-2,-7.185144E-2,3.990818E-1,-1.703363E-1,8.538057E-2,-7.8535885E-2,8.063464E-2,-1.43921925E-2,2.0334665E-2,-8.372143E-2,7.4416137E-4,-8.276897E-2],"categories":[],"categories_nodes":[],"categories_segments":[],"categories_sizes":[],"default_left":[0,0,0,0,0,0,0,0,0,0,0,0,0,0,0,0,0,0,0],"id":51,"left_children":[1,3,-1,5,7,-1,9,11,-1,13,15,-1,17,-1,-1,-1,-1,-1,-1],"loss_changes":[6.389323E0,3.0947142E0,0E0,4.357088E0,1.4004343E0,0E0,1.3414618E0,2.5920963E0,0E0,1.5638249E0,2.9807365E0,0E0,3.0716445E0,0E0,0E0,0E0,0E0,0E0,0E0],"parents":[2147483647,0,0,1,1,3,3,4,4,6,6,7,7,9,9,10,10,12,12],"right_children":[2,4,-1,6,8,-1,10,12,-1,14,16,-1,18,-1,-1,-1,-1,-1,-1],"split_conditions":[1.5493089E0,5.5E1,-8.753943E-2,3.7037035E4,2.42E7,9.0117924E-2,1.5E1,5.390613E-2,-7.185144E-2,1.4285714E5,7.692308E4,8.538057E-2,1.54E7,8.063464E-2,-1.43921925E-2,2.0334665E-2,-8.372143E-2,7.4416137E-4,-8.276897E-2],"split_indices":[1,3,0,0,3,0,3,0,0,0,0,0,3,0,0,0,0,0,0],"split_type":[0,0,0,0,0,0,0,0,0,0,0,0,0,0,0,0,0,0,0],"sum_hessian":[8.186496E1,7.513855E1,6.7264132E0,2.4304342E1,5.0834206E1,8.479643E0,1.5824698E1,4.8774857E1,2.0593503E0,5.546684E0,1.0278015E1,2.181819E0,4.6593037E1,2.8923697E0,2.654314E0,7.0324697E0,3.2455451E0,4.2684383E1,3.9086552E0],"tree_param":{"num_deleted":"0","num_feature":"4","num_nodes":"19","size_leaf_vector":"1"}},{"base_weights":[-8.93251E-3,7.3122986E-2,-8.649846E-2,3.5555786E-1,-5.4723132E-2,8.9206874E-2,2.1424592E-2,-1.3686774E-2,-8.6055666E-2,2.9362133E-1,-3.5463288E-1,7.4117035E-2,-6.4624704E-2,8.0173336E-2,-1.3131717E-2,1.06482E-2,-1.03003345E-1,2.6461857E-3,-4.9470577E-2],"categories":[],"categories_nodes":[],"categories_segments":[],"categories_sizes":[],"default_left":[0,0,0,0,0,0,0,0,0,0,0,0,0,0,0,0,0,0,0],"id":52,"left_children":[1,3,-1,5,7,-1,9,11,-1,13,15,-1,17,-1,-1,-1,-1,-1,-1],"loss_changes":[5.76028E0,2.7251053E0,0E0,4.1905146E0,